{"learner":{"attributes":{"best_iteration":"89","best_ntree_limit":"90","scikit_learn":"{\"use_label_encoder\": null, \"n_estimators\": 90, \"objective\": \"binary:logistic\", \"max_depth\": null, \"max_leaves\": null, \"max_bin\": null, \"grow_policy\": null, \"learning_rate\": 0.1, \"verbosity\": null, \"booster\": null, \"tree_method\": null, \"gamma\": null, \"min_child_weight\": null, \"max_delta_step\": null, \"subsample\": null, \"sampling_method\": null, \"colsample_bytree\": null, \"colsample_bylevel\": null, \"colsample_bynode\": null, \"reg_alpha\": null, \"reg_lambda\": null, \"scale_pos_weight\": null, \"base_score\": null, \"missing\": NaN, \"num_parallel_tree\": null, \"random_state\": null, \"n_jobs\": null, \"monotone_constraints\": null, \"interaction_constraints\": null, \"importance_type\": null, \"gpu_id\": null, \"validate_parameters\": null, \"predictor\": null, \"enable_categorical\": false, \"feature_types\": null, \"max_cat_to_onehot\": null, \"max_cat_threshold\": null, \"eval_metric\": null, \"early_stopping_rounds\": null, \"callbacks\": null, \"classes_\": [0.0, 1.0], \"n_classes_\": 2, \"_estimator_type\": \"classifier\"}"},"feature_names":[],"feature_types":[],"gradient_booster":{"model":{"gbtree_model_param":{"num_parallel_tree":"1","num_trees":"90","size_leaf_vector":"0"},"tree_info":[0,0,0,0,0,0,0,0,0,0,0,0,0,0,0,0,0,0,0,0,0,0,0,0,0,0,0,0,0,0,0,0,0,0,0,0,0,0,0,0,0,0,0,0,0,0,0,0,0,0,0,0,0,0,0,0,0,0,0,0,0,0,0,0,0,0,0,0,0,0,0,0,0,0,0,0,0,0,0,0,0,0,0,0,0,0,0,0,0,0],"trees":[{"base_weights":[6.488275E-1,1.9666049E-1,1.0526898E0,-1.7120995E-1,4.750181E-1,7.9789776E-1,1.1130376E0,-4.382817E-1,3.8346827E-2,8.533135E-1,3.5316607E-1,5.7048094E-1,1.1021324E0,1.1825613E0,9.399684E-1,-1.6372392E-1,-5.770492E-1,1.9815059E-1,-2.5089607E-1,1.0858896E0,6.302158E-1,4.2230645E-1,-1.6565657E-1,1.6806723E-1,6.666667E-1,-4.6153846E-1,1.1201814E0,1.4528302E0,1.1510612E0,8.46729E-1,1.4343435E0,2.4390244E-1,-4.2519686E-1,-6.219931E-1,3.3333334E-1,4.5705023E-1,1.9977802E-2,-4.3636364E-1,4.3093923E-1,1.4285715E0,9.904398E-1,8.700565E-1,3.768116E-1,2.535211E-1,5.3556865E-1,-4.043716E-1,4.9624062E-1,3.7037036E-1,-5.660377E-1,8.230769E-1,4.8245615E-1,2.2222222E-1,-1E0,1.2084593E0,8.3928573E-1,1.5384616E-1,1.4704944E0,1.0761969E0,1.2332703E0,1.1341463E0,7.929515E-1,1.4578005E0,-2.2222222E-1,-1.1428572E0,3.220339E-1,-1.0309278E-1,-7.4345547E-1,-4.5801528E-2,-6.9238186E-1,5.882353E-1,-7.692308E-1,2.4451411E-1,6.754967E-1,-3.3082706E-1,1.658842E-1,-2.3963134E-1,-8E-1,1.6793893E-1,1.037037E0,2.2222222E-1,1.5630252E0,6.2068963E-1,1.1204189E0,9.271137E-1,-6.666667E-1,5.7377046E-1,-9.52381E-2,4.914586E-1,5.449591E-3,6.5034014E-1,3.0499324E-1,-8.108108E-1,-2.2393823E-1,8.666667E-1,1.8181819E-1,-1.0810811E-1,6.554622E-1,9.0909094E-1,-8.695652E-1,9.830508E-1,4.7058824E-1,9.2436975E-1,3.2258064E-1,1.56E0,1.1378092E0,-1E0,9.259259E-1,-5E-1,6.666667E-1,1.2183908E0,1.5536104E0,1.1372205E0,8.679245E-1,1.3398329E0,1.1030502E0,1.1702787E0,-6.666667E-1,6.796116E-1,1.0273973E0,1.4728682E0,-0E0],"categories":[],"categories_nodes":[],"categories_segments":[],"categories_sizes":[],"default_left":[1,1,1,1,1,1,1,1,1,1,1,1,1,1,1,1,1,1,1,1,1,1,1,1,1,1,1,1,1,1,1,1,1,1,1,1,1,1,1,1,1,1,1,1,1,1,1,1,1,1,1,0,0,1,1,1,1,1,1,1,1,1,0,0,0,0,0,0,0,0,0,0,0,0,0,0,0,0,0,0,0,0,0,0,0,0,0,0,0,0,0,0,0,0,0,0,0,0,0,0,0,0,0,0,0,0,0,0,0,0,0,0,0,0,0,0,0,0,0,0,0],"id":0,"left_children":[1,3,5,7,9,11,13,15,17,19,21,23,25,27,29,31,33,35,37,39,41,43,45,47,49,51,53,55,57,59,61,63,65,67,69,71,73,75,77,79,81,83,85,87,89,91,93,95,97,99,101,-1,-1,103,105,107,109,111,113,115,117,119,-1,-1,-1,-1,-1,-1,-1,-1,-1,-1,-1,-1,-1,-1,-1,-1,-1,-1,-1,-1,-1,-1,-1,-1,-1,-1,-1,-1,-1,-1,-1,-1,-1,-1,-1,-1,-1,-1,-1,-1,-1,-1,-1,-1,-1,-1,-1,-1,-1,-1,-1,-1,-1,-1,-1,-1,-1,-1,-1],"loss_changes":[9.381509E2,2.484514E2,4.084253E1,5.852998E1,6.33573E1,3.5573914E1,2.5260742E1,1.7421852E1,2.7170532E1,1.6736786E1,3.7600616E1,1.1557953E1,6.8036194E0,1.1606445E1,2.7963806E1,1.670405E1,1.2686768E1,1.745065E1,2.6649452E1,3.916626E0,1.0232086E1,1.7518768E1,1.975376E1,9.046092E0,6.6043167E0,1.4188035E0,4.4534607E0,3.4221497E0,7.2999268E0,7.369934E0,4.1709137E0,7.031536E0,9.687662E0,1.1770493E1,4.668175E0,6.996315E0,1.1584227E1,1.1612232E1,7.038868E0,5.0457535E0,5.588394E0,8.377853E0,8.073684E0,2.1999083E1,1.4402878E1,6.5285997E0,3.7150602E0,6.516247E0,6.723096E0,6.867958E0,7.75605E0,0E0,0E0,2.335434E0,9.849865E0,1.4230769E0,1.3916016E0,8.437073E0,7.697998E0,6.1157227E0,1.13654785E1,2.1471558E0,0E0,0E0,0E0,0E0,0E0,0E0,0E0,0E0,0E0,0E0,0E0,0E0,0E0,0E0,0E0,0E0,0E0,0E0,0E0,0E0,0E0,0E0,0E0,0E0,0E0,0E0,0E0,0E0,0E0,0E0,0E0,0E0,0E0,0E0,0E0,0E0,0E0,0E0,0E0,0E0,0E0,0E0,0E0,0E0,0E0,0E0,0E0,0E0,0E0,0E0,0E0,0E0,0E0,0E0,0E0,0E0,0E0,0E0,0E0],"parents":[2147483647,0,0,1,1,2,2,3,3,4,4,5,5,6,6,7,7,8,8,9,9,10,10,11,11,12,12,13,13,14,14,15,15,16,16,17,17,18,18,19,19,20,20,21,21,22,22,23,23,24,24,25,25,26,26,27,27,28,28,29,29,30,30,31,31,32,32,33,33,34,34,35,35,36,36,37,37,38,38,39,39,40,40,41,41,42,42,43,43,44,44,45,45,46,46,47,47,48,48,49,49,50,50,53,53,54,54,55,55,56,56,57,57,58,58,59,59,60,60,61,61],"right_children":[2,4,6,8,10,12,14,16,18,20,22,24,26,28,30,32,34,36,38,40,42,44,46,48,50,52,54,56,58,60,62,64,66,68,70,72,74,76,78,80,82,84,86,88,90,92,94,96,98,100,102,-1,-1,104,106,108,110,112,114,116,118,120,-1,-1,-1,-1,-1,-1,-1,-1,-1,-1,-1,-1,-1,-1,-1,-1,-1,-1,-1,-1,-1,-1,-1,-1,-1,-1,-1,-1,-1,-1,-1,-1,-1,-1,-1,-1,-1,-1,-1,-1,-1,-1,-1,-1,-1,-1,-1,-1,-1,-1,-1,-1,-1,-1,-1,-1,-1,-1,-1],"split_conditions":[-1.2247183E-1,-1.005369E0,4.661262E-1,-6.0645866E-1,-3.776992E-1,3.049925E-1,8.2326865E-1,-3.7024218E-1,-2.597382E-1,-3.7017423E-1,5.307811E-1,-1.2151947E0,-8.9783144E-1,-4.0237474E-1,1.3490233E0,-3.154086E-1,1.3876688E0,-3.702399E-1,1.2923979E0,-7.110699E-1,2.4731472E-2,-8.312913E-2,9.4836974E-1,1.7182718E-1,5.100678E-1,2.3428397E-2,2.3684642E-1,-1.6396902E0,3.3104357E-1,-3.8672686E-1,3.747344E0,-8.5872996E-1,3.2828945E-1,-3.9575446E-1,9.801844E-1,2.7593178E-1,-1.593967E0,4.5254165E-1,8.379121E-1,-4.1952723E-1,-5.1478624E-1,1.7262958E0,-3.8913423E-1,-4.2283255E-1,6.80619E-1,-7.110699E-1,-9.9961245E-1,-3.6988592E-1,-3.7023872E-1,-3.6984584E-1,-1.0738008E0,2.2222223E-2,-1E-1,-1.2889115E0,2.5496185E-1,-3.5389748E-1,7.604252E-1,4.8499495E-1,6.3543224E-1,4.340666E-1,-2.3205349E-1,3.3990407E0,-2.2222223E-2,-1.1428572E-1,3.220339E-2,-1.0309278E-2,-7.434555E-2,-4.5801527E-3,-6.9238186E-2,5.8823533E-2,-7.692308E-2,2.445141E-2,6.754967E-2,-3.3082705E-2,1.658842E-2,-2.3963135E-2,-8.0000006E-2,1.6793894E-2,1.037037E-1,2.2222223E-2,1.5630253E-1,6.2068965E-2,1.1204189E-1,9.2711374E-2,-6.666667E-2,5.7377048E-2,-9.52381E-3,4.914586E-2,5.4495916E-4,6.503402E-2,3.0499324E-2,-8.1081085E-2,-2.2393823E-2,8.6666666E-2,1.818182E-2,-1.0810811E-2,6.554622E-2,9.090909E-2,-8.695652E-2,9.8305084E-2,4.7058824E-2,9.243698E-2,3.2258064E-2,1.56E-1,1.13780916E-1,-1E-1,9.259259E-2,-5E-2,6.666667E-2,1.21839084E-1,1.5536104E-1,1.1372205E-1,8.6792454E-2,1.339833E-1,1.10305026E-1,1.1702787E-1,-6.666667E-2,6.7961164E-2,1.0273973E-1,1.4728682E-1,-0E0],"split_indices":[2,2,2,5,4,5,5,6,4,6,4,5,7,4,2,4,3,6,5,2,3,8,5,2,0,4,3,3,8,4,6,7,0,4,0,3,2,4,8,4,0,9,4,1,3,2,3,6,6,6,5,0,0,0,3,6,2,0,0,1,4,7,0,0,0,0,0,0,0,0,0,0,0,0,0,0,0,0,0,0,0,0,0,0,0,0,0,0,0,0,0,0,0,0,0,0,0,0,0,0,0,0,0,0,0,0,0,0,0,0,0,0,0,0,0,0,0,0,0,0,0],"split_type":[0,0,0,0,0,0,0,0,0,0,0,0,0,0,0,0,0,0,0,0,0,0,0,0,0,0,0,0,0,0,0,0,0,0,0,0,0,0,0,0,0,0,0,0,0,0,0,0,0,0,0,0,0,0,0,0,0,0,0,0,0,0,0,0,0,0,0,0,0,0,0,0,0,0,0,0,0,0,0,0,0,0,0,0,0,0,0,0,0,0,0,0,0,0,0,0,0,0,0,0,0,0,0,0,0,0,0,0,0,0,0,0,0,0,0,0,0,0,0,0,0],"sum_hessian":[5.1375E3,2.4245E3,2.713E3,1.0445E3,1.38E3,5.2225E2,2.19075E3,4.5875E2,5.8575E2,3.3475E2,1.04525E3,3.005E2,2.2175E2,1.55875E3,6.32E2,1.5475E2,3.04E2,3.775E2,2.0825E2,1.62E2,1.7275E2,9.225E2,1.2275E2,5.85E1,2.42E2,2.25E0,2.195E2,1.58E2,1.40075E3,5.34E2,9.8E1,6.05E1,9.425E1,2.9E2,1.4E1,1.5325E2,2.2425E2,1.64E2,4.425E1,3.225E1,1.2975E2,8.75E1,8.525E1,3.7175E2,5.5075E2,9.05E1,3.225E1,4.625E1,1.225E1,1.29E2,1.13E2,1.25E0,1E0,1.645E2,5.5E1,2.25E0,1.5575E2,7.405E2,6.6025E2,8.1E1,4.53E2,9.675E1,1.25E0,2.5E0,5.8E1,4.75E1,4.675E1,3.175E1,2.5825E2,1.175E1,2.25E0,7.875E1,7.45E1,6.55E1,1.5875E2,1.075E2,5.65E1,3.175E1,1.25E1,3.5E0,2.875E1,3.525E1,9.45E1,8.475E1,2.75E0,6E1,2.525E1,1.8925E2,1.825E2,3.665E2,1.8425E2,2.675E1,6.375E1,1.4E1,1.825E1,1.75E1,2.875E1,1.75E0,1.05E1,8.75E1,4.15E1,2.875E1,8.425E1,2.4E1,1.405E2,2E0,5.3E1,1E0,1.25E0,4.25E1,1.1325E2,5.6925E2,1.7125E2,3.58E2,3.0225E2,7.975E1,1.25E0,3.08E2,1.45E2,9.575E1,1E0],"tree_param":{"num_deleted":"0","num_feature":"11","num_nodes":"121","size_leaf_vector":"0"}},{"base_weights":[5.8556336E-1,1.7732352E-1,9.509798E-1,-1.5435643E-1,4.2838168E-1,7.2066545E-1,1.0055912E0,-4.608165E-1,-4.2905477E-3,7.4293E-1,3.070937E-1,4.808058E-1,9.6069795E-1,1.096811E0,8.913904E-1,-2.0101066E-1,-5.8807546E-1,1.4405097E-1,-2.5333527E-1,9.5845366E-1,5.359283E-1,3.712508E-1,-1.4917977E-1,4.1027585E-1,1.0262985E0,-3.85349E-1,9.7657144E-1,1.198448E0,1.0235543E0,8.3472914E-1,1.2112646E0,2.656289E-1,-4.828083E-1,-6.4104515E-1,3.4628993E-1,3.5741785E-1,7.0867484E-4,-3.9276415E-1,3.9930874E-1,1.0933963E0,7.504057E-1,5.7483333E-1,-6.072042E-1,2.9879126E-1,6.172257E-1,-3.397317E-1,5.4639876E-1,7.5577754E-1,2.901845E-1,1.2810891E0,-1.2626314E-1,2.3604819E-1,-7.903529E-1,9.946045E-1,1.2685598E-2,1.2382289E0,8.315397E-1,1.1258788E0,9.2107743E-1,9.936255E-1,7.447912E-1,1.231336E0,-4.2299286E-1,3.9978284E-1,-1.0752409E0,-8.4259665E-1,-1.1732662E-1,-2.1574733E-1,-7.1904975E-1,1.1605775E0,-1.4466111E-1,2.2946368E-1,6.252051E-1,-9.530852E-2,3.6235154E-1,-8.713072E-1,-3.0376858E-1,1.690055E-1,9.398185E-1,3.2447897E-2,1.1352816E0,8.325843E-1,-3.0915073E-1,4.869211E-1,1.0520146E0,6.533943E-1,-9.9500626E-1,6.771049E-2,4.177337E-1,9.4381136E-1,4.8604578E-1,-1.3780342E-2,-6.0085535E-1,1.1206754E0,2.0982918E-1,-6.1536723E-1,8.2609475E-1,1.3105272E0,2.4173504E-1,1.3626552E0,1.4803882E-1,3.121081E-1,-7.051645E-1,1.1228105E0,8.216587E-1,-8.3264166E-1,7.945064E-1,1.0678144E0,1.3175122E0,-2.2969499E-1,8.9511496E-1,8.65741E-1,1.2096715E0,7.560946E-1,1.1162992E0,8.910951E-1,1.2833073E0,1.3866183E0,7.2084E-1,1.2455167E0,-2.0989144E-1],"categories":[],"categories_nodes":[],"categories_segments":[],"categories_sizes":[],"default_left":[1,1,1,1,1,1,1,1,1,1,1,1,1,1,1,1,1,1,1,1,1,1,1,1,1,1,1,1,1,1,1,1,1,1,1,1,1,1,1,1,1,1,1,1,1,1,1,1,1,1,1,0,0,1,1,1,1,1,1,1,1,1,0,0,0,0,0,0,0,0,0,0,0,0,0,0,0,0,0,0,0,0,0,0,0,0,0,0,0,0,0,0,0,0,0,0,0,0,0,0,0,0,0,0,0,0,0,0,0,0,0,0,0,0,0,0,0,0,0,0,0],"id":1,"left_children":[1,3,5,7,9,11,13,15,17,19,21,23,25,27,29,31,33,35,37,39,41,43,45,47,49,51,53,55,57,59,61,63,65,67,69,71,73,75,77,79,81,83,85,87,89,91,93,95,97,99,101,-1,-1,103,105,107,109,111,113,115,117,119,-1,-1,-1,-1,-1,-1,-1,-1,-1,-1,-1,-1,-1,-1,-1,-1,-1,-1,-1,-1,-1,-1,-1,-1,-1,-1,-1,-1,-1,-1,-1,-1,-1,-1,-1,-1,-1,-1,-1,-1,-1,-1,-1,-1,-1,-1,-1,-1,-1,-1,-1,-1,-1,-1,-1,-1,-1,-1,-1],"loss_changes":[7.648611E2,2.0186974E2,3.3308838E1,4.8048508E1,5.240628E1,2.960083E1,2.1781494E1,1.123671E1,2.5985155E1,1.658374E1,2.9252586E1,9.704216E0,5.931244E0,7.7841797E0,1.6669128E1,1.5176107E1,1.1605507E1,1.3482214E1,2.404891E1,4.4149017E0,9.143639E0,1.5406158E1,1.6577368E1,9.519184E0,8.81465E0,1.1296179E0,4.458618E0,6.2838745E0,6.409546E0,1.1148682E1,5.2631683E0,8.296368E0,9.329794E0,7.0775146E0,5.3604546E0,5.926241E0,9.225409E0,8.970306E0,5.6561775E0,4.892563E0,6.9233093E0,7.531845E0,4.069686E0,1.8596516E1,8.028458E0,8.306731E0,4.9791193E0,6.2851334E0,8.373558E0,2.0367203E0,1.8048524E0,0E0,0E0,4.67601E0,4.4531474E0,4.673218E0,3.7178001E0,6.600281E0,1.0760895E1,7.6982117E0,7.2282104E0,3.1855774E0,0E0,0E0,0E0,0E0,0E0,0E0,0E0,0E0,0E0,0E0,0E0,0E0,0E0,0E0,0E0,0E0,0E0,0E0,0E0,0E0,0E0,0E0,0E0,0E0,0E0,0E0,0E0,0E0,0E0,0E0,0E0,0E0,0E0,0E0,0E0,0E0,0E0,0E0,0E0,0E0,0E0,0E0,0E0,0E0,0E0,0E0,0E0,0E0,0E0,0E0,0E0,0E0,0E0,0E0,0E0,0E0,0E0,0E0,0E0],"parents":[2147483647,0,0,1,1,2,2,3,3,4,4,5,5,6,6,7,7,8,8,9,9,10,10,11,11,12,12,13,13,14,14,15,15,16,16,17,17,18,18,19,19,20,20,21,21,22,22,23,23,24,24,25,25,26,26,27,27,28,28,29,29,30,30,31,31,32,32,33,33,34,34,35,35,36,36,37,37,38,38,39,39,40,40,41,41,42,42,43,43,44,44,45,45,46,46,47,47,48,48,49,49,50,50,53,53,54,54,55,55,56,56,57,57,58,58,59,59,60,60,61,61],"right_children":[2,4,6,8,10,12,14,16,18,20,22,24,26,28,30,32,34,36,38,40,42,44,46,48,50,52,54,56,58,60,62,64,66,68,70,72,74,76,78,80,82,84,86,88,90,92,94,96,98,100,102,-1,-1,104,106,108,110,112,114,116,118,120,-1,-1,-1,-1,-1,-1,-1,-1,-1,-1,-1,-1,-1,-1,-1,-1,-1,-1,-1,-1,-1,-1,-1,-1,-1,-1,-1,-1,-1,-1,-1,-1,-1,-1,-1,-1,-1,-1,-1,-1,-1,-1,-1,-1,-1,-1,-1,-1,-1,-1,-1,-1,-1,-1,-1,-1,-1,-1,-1],"split_conditions":[-1.2247183E-1,-1.005369E0,4.661262E-1,-9.192115E-1,-3.7107897E-1,-3.1589143E-2,1.7691275E-1,-3.7023664E-1,-2.6334926E-1,-3.701781E-1,5.307811E-1,8.467481E-1,-8.9783144E-1,-3.4339422E-1,1.3490233E0,-3.154086E-1,1.3876688E0,-3.702399E-1,1.2923979E0,3.4520358E-1,1.2716566E0,1.094321E0,1.094321E0,-3.674679E-1,-3.6370286E-1,-9.618399E-1,2.1851358E0,1.1060448E-1,5.538112E-1,-3.7024605E-1,3.3802936E0,-9.6642226E-1,2.1932286E-1,7.565204E-2,-3.6973104E-1,6.341777E-1,-1.2996678E0,-1.1217213E0,4.380632E-1,-1.6293738E0,7.503207E-1,9.779419E-1,-3.6893827E-1,-7.524013E-2,-7.110699E-1,5.7901824E-1,-1.0861055E0,-1.0973258E0,-9.7995996E-1,1.7182718E-1,3.0284247E0,2.360482E-2,-7.903529E-2,1.7158392E-1,8.262472E-1,-4.466222E-1,2.578935E-1,-3.4741074E-1,1.245649E0,4.3643695E-1,-4.1260606E-1,3.747344E0,-4.2299286E-2,3.9978284E-2,-1.0752409E-1,-8.425967E-2,-1.1732662E-2,-2.1574734E-2,-7.190498E-2,1.1605775E-1,-1.4466112E-2,2.2946369E-2,6.252051E-2,-9.530853E-3,3.6235154E-2,-8.713072E-2,-3.0376857E-2,1.690055E-2,9.3981855E-2,3.2447898E-3,1.13528155E-1,8.3258435E-2,-3.0915072E-2,4.869211E-2,1.0520146E-1,6.533943E-2,-9.950063E-2,6.771049E-3,4.177337E-2,9.438114E-2,4.8604578E-2,-1.3780342E-3,-6.0085535E-2,1.1206754E-1,2.098292E-2,-6.1536726E-2,8.2609475E-2,1.3105272E-1,2.4173504E-2,1.3626552E-1,1.4803882E-2,3.121081E-2,-7.051645E-2,1.1228105E-1,8.216587E-2,-8.3264165E-2,7.945064E-2,1.0678144E-1,1.3175122E-1,-2.29695E-2,8.95115E-2,8.65741E-2,1.2096715E-1,7.560946E-2,1.1162992E-1,8.910951E-2,1.2833074E-1,1.3866183E-1,7.2084E-2,1.2455167E-1,-2.0989144E-2],"split_indices":[2,2,2,5,4,5,5,6,4,6,4,4,7,4,2,4,3,6,5,5,0,5,5,4,5,7,9,6,3,6,7,5,9,1,6,3,2,9,9,8,7,8,6,8,2,0,1,3,3,2,4,0,0,0,5,9,6,8,1,9,4,6,0,0,0,0,0,0,0,0,0,0,0,0,0,0,0,0,0,0,0,0,0,0,0,0,0,0,0,0,0,0,0,0,0,0,0,0,0,0,0,0,0,0,0,0,0,0,0,0,0,0,0,0,0,0,0,0,0,0,0],"split_type":[0,0,0,0,0,0,0,0,0,0,0,0,0,0,0,0,0,0,0,0,0,0,0,0,0,0,0,0,0,0,0,0,0,0,0,0,0,0,0,0,0,0,0,0,0,0,0,0,0,0,0,0,0,0,0,0,0,0,0,0,0,0,0,0,0,0,0,0,0,0,0,0,0,0,0,0,0,0,0,0,0,0,0,0,0,0,0,0,0,0,0,0,0,0,0,0,0,0,0,0,0,0,0,0,0,0,0,0,0,0,0,0,0,0,0,0,0,0,0,0,0],"sum_hessian":[5.127318E3,2.422457E3,2.704861E3,1.043821E3,1.378636E3,5.2115765E2,2.1837034E3,3.4243658E2,7.0138446E2,3.822314E2,9.9640454E2,2.6217477E2,2.589829E2,1.2092156E3,9.7448773E2,1.13434204E2,2.2900238E2,4.3982675E2,2.615577E2,1.854826E2,1.9674883E2,8.737342E2,1.2267033E2,2.3370924E2,2.8465523E1,2.7472198E0,2.562357E2,5.0006412E2,7.0915137E2,8.309127E2,1.4357503E2,4.273125E1,7.070295E1,2.1701367E2,1.1988706E1,1.7614264E2,2.636841E2,2.1584372E2,4.5713997E1,1.0992699E2,7.555562E1,1.907539E2,5.994918E0,6.766273E2,1.9710687E2,9.6693085E1,2.5977236E1,5.891577E1,1.7479347E2,2.3220728E1,5.2447953E0,1.2486254E0,1.4985945E0,2.5149861E2,4.7370863E0,4.4900708E2,5.1057064E1,3.498424E2,3.59309E2,2.96691E2,5.3422174E2,1.4207664E2,1.4983869E0,3.9482845E1,3.2484078E0,3.4971138E1,3.573181E1,3.421763E1,1.8279605E2,3.9963884E0,7.992317E0,1.2044735E2,5.5695293E1,2.0894505E2,5.473904E1,3.2467964E1,1.8337576E2,3.2976063E1,1.2737935E1,4.242397E0,1.0568459E2,7.0316154E1,5.2394633E0,1.627842E2,2.7969706E1,1.2492409E0,4.745677E0,2.3046005E2,4.461673E2,5.4708862E1,1.4239801E2,4.3476143E1,5.3216946E1,8.738072E0,1.7239162E1,2.4958992E0,5.6419872E1,6.7427244E0,1.6805075E2,2.1472332E1,1.7483954E0,3.2469294E0,1.9978658E0,1.4127686E2,1.1022175E2,2.2448676E0,2.492219E0,1.4716116E2,3.018459E2,2.7381039E0,4.8318962E1,8.799387E1,2.6184854E2,1.9737743E2,1.6193156E2,2.2214185E2,7.454916E1,1.7171772E1,5.170499E2,1.408268E2,1.2498457E0],"tree_param":{"num_deleted":"0","num_feature":"11","num_nodes":"121","size_leaf_vector":"0"}},{"base_weights":[5.302484E-1,1.6014537E-1,8.6341643E-1,-1.3919322E-1,3.8692707E-1,6.5283024E-1,9.135193E-1,-3.6074266E-1,3.4352157E-2,7.0121545E-1,2.862194E-1,4.6437865E-1,9.0678954E-1,9.986201E-1,8.0969125E-1,-1.5272051E-2,-4.4290036E-1,1.02451734E-1,-4.4007817E-1,8.949445E-1,5.166503E-1,3.4220204E-1,-1.3387083E-1,1.1743964E-1,5.4763776E-1,-4.169785E-1,9.2232865E-1,1.0942469E0,9.299536E-1,7.5612557E-1,1.1138467E0,-6.6679925E-1,2.2414054E-1,-3.1721598E-1,-6.061913E-1,4.8711285E-2,5.388808E-1,-6.4085716E-1,5.4927707E-1,1.2156565E0,8.068529E-1,7.3516333E-1,2.8701028E-1,2.9583603E-1,6.712428E-1,-3.413734E-1,3.9733905E-1,3.0042517E-1,-5.43607E-1,6.8635803E-1,3.8504148E-1,1.0030938E0,6.678997E-1,9.176902E-2,1.1073791E0,9.0642023E-1,1.3644705E0,9.053983E-1,6.7158693E-1,1.1324273E0,-3.9753368E-1,2.5263718E-1,-9.5036113E-1,4.342541E-1,-1.6805492E-1,-5.761846E-1,-1.07019305E-1,-8.6089516E-1,-3.191981E-1,2.2737923E-1,-7.394325E-2,3.2224464E-1,1.170368E0,-7.260979E-1,6.881742E-1,-3.288495E-1,1.0138716E0,1.3499807E-1,1.3397572E0,4.8497233E-1,9.212204E-1,7.877619E-1,-6.5730435E-1,1.540695E-1,8.836736E-1,4.0399343E-1,1.300138E-1,5.1489246E-1,1.1960676E0,-4.6361586E-1,2.8374338E-1,1.0572045E0,2.3258689E-1,-1.284064E-1,5.576415E-1,-1.2951074E0,6.9335155E-2,8.316883E-1,3.6860844E-1,4.1809425E-1,-1.2545902E0,1.0144179E0,-1.4157668E-1,-1.0029763E0,7.490633E-1,7.861977E-1,-8.1034154E-1,1.149982E0,8.261591E-1,1.0087935E0,8.049518E-1,1.0372407E-1,1.409063E0,8.0986E-1,1.1726786E0,1.2925752E0,6.4803827E-1,1.2392454E0,8.736684E-1],"categories":[],"categories_nodes":[],"categories_segments":[],"categories_sizes":[],"default_left":[1,1,1,1,1,1,1,1,1,1,1,1,1,1,1,1,1,1,1,1,1,1,1,1,1,0,1,1,1,1,1,1,1,1,1,1,1,1,1,1,1,1,1,1,1,1,1,1,1,1,1,1,1,1,1,1,1,1,1,1,0,0,0,0,0,0,0,0,0,0,0,0,0,0,0,0,0,0,0,0,0,0,0,0,0,0,0,0,0,0,0,0,0,0,0,0,0,0,0,0,0,0,0,0,0,0,0,0,0,0,0,0,0,0,0,0,0,0,0],"id":2,"left_children":[1,3,5,7,9,11,13,15,17,19,21,23,25,27,29,31,33,35,37,39,41,43,45,47,49,-1,51,53,55,57,59,61,63,65,67,69,71,73,75,77,79,81,83,85,87,89,91,93,95,97,99,101,103,105,107,109,111,113,115,117,-1,-1,-1,-1,-1,-1,-1,-1,-1,-1,-1,-1,-1,-1,-1,-1,-1,-1,-1,-1,-1,-1,-1,-1,-1,-1,-1,-1,-1,-1,-1,-1,-1,-1,-1,-1,-1,-1,-1,-1,-1,-1,-1,-1,-1,-1,-1,-1,-1,-1,-1,-1,-1,-1,-1,-1,-1,-1,-1],"loss_changes":[6.290919E2,1.6424716E2,2.7735962E1,4.012655E1,4.3364197E1,2.4446213E1,1.8335693E1,1.3002937E1,1.8976255E1,1.1455841E1,2.460025E1,8.610558E0,4.9157867E0,6.772949E0,1.5144409E1,1.4047297E1,7.4066696E0,1.2010556E1,1.4999571E1,3.5750427E0,8.473293E0,1.3861404E1,1.3748164E1,7.3478556E0,5.192337E0,0E0,3.81044E0,6.3518677E0,5.8928223E0,9.959564E0,4.517029E0,6.54786E0,5.503841E0,1.1441513E1,1.1416641E1,1.005459E1,7.3067055E0,7.4963474E0,5.628237E0,4.2146645E0,4.3198776E0,6.966053E0,6.6873927E0,1.446666E1,8.659473E0,6.958791E0,3.5755816E0,5.2737246E0,6.185145E0,5.662819E0,6.6839123E0,2.2630463E0,8.281723E0,5.2909656E0,4.8460083E0,6.0892944E0,1.7564735E0,6.708679E0,7.0371704E0,2.878662E0,0E0,0E0,0E0,0E0,0E0,0E0,0E0,0E0,0E0,0E0,0E0,0E0,0E0,0E0,0E0,0E0,0E0,0E0,0E0,0E0,0E0,0E0,0E0,0E0,0E0,0E0,0E0,0E0,0E0,0E0,0E0,0E0,0E0,0E0,0E0,0E0,0E0,0E0,0E0,0E0,0E0,0E0,0E0,0E0,0E0,0E0,0E0,0E0,0E0,0E0,0E0,0E0,0E0,0E0,0E0,0E0,0E0,0E0,0E0],"parents":[2147483647,0,0,1,1,2,2,3,3,4,4,5,5,6,6,7,7,8,8,9,9,10,10,11,11,12,12,13,13,14,14,15,15,16,16,17,17,18,18,19,19,20,20,21,21,22,22,23,23,24,24,26,26,27,27,28,28,29,29,30,30,31,31,32,32,33,33,34,34,35,35,36,36,37,37,38,38,39,39,40,40,41,41,42,42,43,43,44,44,45,45,46,46,47,47,48,48,49,49,50,50,51,51,52,52,53,53,54,54,55,55,56,56,57,57,58,58,59,59],"right_children":[2,4,6,8,10,12,14,16,18,20,22,24,26,28,30,32,34,36,38,40,42,44,46,48,50,-1,52,54,56,58,60,62,64,66,68,70,72,74,76,78,80,82,84,86,88,90,92,94,96,98,100,102,104,106,108,110,112,114,116,118,-1,-1,-1,-1,-1,-1,-1,-1,-1,-1,-1,-1,-1,-1,-1,-1,-1,-1,-1,-1,-1,-1,-1,-1,-1,-1,-1,-1,-1,-1,-1,-1,-1,-1,-1,-1,-1,-1,-1,-1,-1,-1,-1,-1,-1,-1,-1,-1,-1,-1,-1,-1,-1,-1,-1,-1,-1,-1,-1],"split_conditions":[-1.2247183E-1,-1.005369E0,4.661262E-1,-6.0645866E-1,-3.776992E-1,3.049925E-1,1.5308397E-1,-3.7649554E-1,3.321733E-1,-3.7017423E-1,5.307811E-1,-1.2151947E0,-8.9783144E-1,-3.4339422E-1,1.3490233E0,-1.2002423E0,2.6874137E-1,1.2895575E0,1.292398E0,-7.110699E-1,2.4731472E-2,1.3682337E0,8.843299E-1,1.7182718E-1,5.100678E-1,-4.1697852E-2,2.3684642E-1,-1.3827244E0,2.600943E0,-3.7024605E-1,3.3802936E0,-3.702321E-1,-3.6948845E-1,6.213322E-1,-1.030909E0,-3.7023842E-1,8.009291E-1,1.4453653E0,-8.522992E-1,-4.1952723E-1,-5.1478624E-1,1.7262958E0,5.874276E-1,4.0987602E-1,1.1515E0,1.6046281E0,-3.8942182E-1,-3.6988592E-1,7.0828617E-1,-3.6984584E-1,2.6776E-1,3.624008E0,2.5496185E-1,-1.4774778E0,-1.8007475E-1,5.538112E-1,-1.241883E0,4.3643695E-1,-4.1260606E-1,1.1684558E-1,-3.975337E-2,2.5263717E-2,-9.503611E-2,4.342541E-2,-1.6805492E-2,-5.7618458E-2,-1.0701931E-2,-8.6089514E-2,-3.191981E-2,2.2737924E-2,-7.394325E-3,3.2224465E-2,1.170368E-1,-7.260979E-2,6.881742E-2,-3.288495E-2,1.0138716E-1,1.3499807E-2,1.3397573E-1,4.8497234E-2,9.212204E-2,7.8776196E-2,-6.573044E-2,1.540695E-2,8.8367365E-2,4.0399343E-2,1.300138E-2,5.1489245E-2,1.19606756E-1,-4.6361588E-2,2.8374339E-2,1.0572045E-1,2.325869E-2,-1.2840641E-2,5.576415E-2,-1.2951075E-1,6.9335154E-3,8.316883E-2,3.6860846E-2,4.1809425E-2,-1.2545902E-1,1.0144179E-1,-1.4157668E-2,-1.0029763E-1,7.4906334E-2,7.861977E-2,-8.103415E-2,1.149982E-1,8.261591E-2,1.0087935E-1,8.049518E-2,1.0372407E-2,1.409063E-1,8.0986E-2,1.1726786E-1,1.2925753E-1,6.480383E-2,1.23924546E-1,8.736684E-2],"split_indices":[2,2,2,5,4,5,5,4,4,6,4,5,7,4,2,5,0,8,5,2,3,9,5,2,0,0,3,1,7,6,7,6,6,3,5,6,5,8,10,4,0,9,9,3,8,9,0,6,3,6,5,7,3,1,6,3,5,9,4,3,0,0,0,0,0,0,0,0,0,0,0,0,0,0,0,0,0,0,0,0,0,0,0,0,0,0,0,0,0,0,0,0,0,0,0,0,0,0,0,0,0,0,0,0,0,0,0,0,0,0,0,0,0,0,0,0,0,0,0],"split_type":[0,0,0,0,0,0,0,0,0,0,0,0,0,0,0,0,0,0,0,0,0,0,0,0,0,0,0,0,0,0,0,0,0,0,0,0,0,0,0,0,0,0,0,0,0,0,0,0,0,0,0,0,0,0,0,0,0,0,0,0,0,0,0,0,0,0,0,0,0,0,0,0,0,0,0,0,0,0,0,0,0,0,0,0,0,0,0,0,0,0,0,0,0,0,0,0,0,0,0,0,0,0,0,0,0,0,0,0,0,0,0,0,0,0,0,0,0,0,0],"sum_hessian":[5.1019775E3,2.4177153E3,2.6842625E3,1.0423113E3,1.3754039E3,5.1859534E2,2.165667E3,4.573614E2,5.8494995E2,3.323242E2,1.0430798E3,2.9931558E2,2.1927977E2,1.1854315E3,9.802355E2,8.809796E1,3.6926343E2,5.1221136E2,7.2738594E1,1.602591E2,1.720651E2,9.205849E2,1.2249489E2,5.839505E1,2.4092053E2,2.2444186E0,2.1703535E2,4.8920953E2,6.9622205E2,8.364175E2,1.4381798E2,2.3193907E1,6.490405E1,2.1032204E2,1.5894139E2,4.5704404E2,5.5167294E1,6.0760212E1,1.1978382E1,3.1775452E1,1.2848364E2,8.7040596E1,8.50245E1,8.0854913E2,1.1203576E2,8.8343346E1,3.4151543E1,4.6162308E1,1.2232742E1,1.2826717E2,1.12653366E2,1.6250705E2,5.452831E1,6.42895E0,4.8278058E2,6.633795E2,3.2842518E1,2.9891077E2,5.375067E2,1.4231906E2,1.4989157E0,5.492802E0,1.7701105E1,4.2192654E1,2.27114E1,9.344896E1,1.16873085E2,8.314831E1,7.579309E1,1.8569408E2,2.7134998E2,4.220043E1,1.2966865E1,5.7524406E1,3.2358077E0,4.2457333E0,7.732649E0,3.4882114E0,2.8287241E1,3.5057335E1,9.342631E1,8.429089E1,2.749705E0,7.056119E1,1.446331E1,4.884934E2,3.2005576E2,8.784651E1,2.4189241E1,7.410949E1,1.4233858E1,5.74095E0,2.8410591E1,1.7495146E1,2.8667162E1,4.995299E0,7.237444E0,8.690272E1,4.136445E1,1.11157585E2,1.4957807E0,1.6102782E2,1.4792246E0,1.9998971E0,5.252841E1,3.7052245E0,2.7237253E0,4.16582E2,6.619858E1,3.2576627E2,3.3761325E2,1.2355766E0,3.1606941E1,2.2316966E2,7.574109E1,1.7669315E1,5.198374E2,9.805277E1,4.426629E1],"tree_param":{"num_deleted":"0","num_feature":"11","num_nodes":"119","size_leaf_vector":"0"}},{"base_weights":[4.8126578E-1,1.4486426E-1,7.866723E-1,-1.2553532E-1,3.5003418E-1,5.921905E-1,8.331569E-1,-2.7019718E-1,9.993615E-2,5.020985E-1,1.7565905E-1,7.81103E-1,3.6994427E-1,8.8943267E-1,6.9423175E-1,-9.647459E-2,-3.9712608E-1,7.516513E-2,1.3328121E0,5.7581824E-1,2.3172998E-1,3.0857593E-1,-1.1565415E-1,1.1643795E0,7.368345E-1,3.147706E-1,9.398636E-1,1.1312852E0,8.6158127E-1,6.187766E-1,1.1035801E0,1.9059756E-1,-2.7398354E-1,-4.4675264E-1,3.3315614E-2,-1.981048E-1,1.8809986E-1,1.5096453E0,2.0990907E-1,7.7895135E-1,4.755781E-1,-4.0659043E-1,3.2115602E-1,2.3528256E-1,7.23287E-1,-2.6676786E-1,8.879948E-1,1.3813078E0,2.4168338E-1,6.643156E-1,9.6027935E-1,4.4501483E-1,7.884057E-2,2.6869047E-1,1.2633036E0,2.6797438E-1,1.1546875E0,9.280953E-1,7.8163785E-1,8.819249E-1,5.701168E-1,1.1245685E0,-2.6728013E-1,2.4054945E-1,-7.4565226E-1,-6.193318E-1,-1.4857115E-1,-5.971685E-1,-3.018304E-1,-8.3897597E-1,1.4996141E-1,1.718608E-2,-6.6590893E-1,6.781335E-2,5.00462E-1,6.521781E-1,1.0587758E0,2.7376792E-1,6.6267914E-1,-1.034766E-1,-1.2944475E0,2.7698812E-1,1.3540299E0,3.1170273E-1,1.2525826E-2,-1.3269158E-1,8.270272E-1,-4.328232E-1,3.7700915E-1,2.4616392E-1,1.1607293E0,3.8631853E-2,1.4590495E0,-8.767226E-1,7.5953007E-1,4.033365E-1,7.6271963E-1,1.2433925E0,6.8288374E-1,5.468174E-1,-3.88727E-1,2.3459567E-1,-6.2385625E-1,8.31781E-1,-1.8500611E-1,1.5299281E0,4.909287E-1,-6.0710984E-1,7.5005627E-1,9.2144376E-1,1.2330251E0,7.947732E-1,1.046866E0,8.565708E-1,6.149272E-1,1.4759291E0,7.20538E-1,4.6838018E-1,7.825666E-1,1.1528445E0,3.3181518E-1],"categories":[],"categories_nodes":[],"categories_segments":[],"categories_sizes":[],"default_left":[1,1,1,1,1,1,1,1,1,1,1,1,1,1,1,1,1,1,1,1,1,1,1,1,1,1,1,1,1,1,1,1,1,1,1,1,1,0,0,1,1,1,1,1,1,1,1,1,1,1,1,1,1,1,1,1,1,1,1,1,1,1,0,0,0,0,0,0,0,0,0,0,0,0,0,0,0,0,0,0,0,0,0,0,0,0,0,0,0,0,0,0,0,0,0,0,0,0,0,0,0,0,0,0,0,0,0,0,0,0,0,0,0,0,0,0,0,0,0,0,0],"id":3,"left_children":[1,3,5,7,9,11,13,15,17,19,21,23,25,27,29,31,33,35,37,39,41,43,45,47,49,51,53,55,57,59,61,63,65,67,69,71,73,-1,-1,75,77,79,81,83,85,87,89,91,93,95,97,99,101,103,105,107,109,111,113,115,117,119,-1,-1,-1,-1,-1,-1,-1,-1,-1,-1,-1,-1,-1,-1,-1,-1,-1,-1,-1,-1,-1,-1,-1,-1,-1,-1,-1,-1,-1,-1,-1,-1,-1,-1,-1,-1,-1,-1,-1,-1,-1,-1,-1,-1,-1,-1,-1,-1,-1,-1,-1,-1,-1,-1,-1,-1,-1,-1,-1],"loss_changes":[5.204591E2,1.338756E2,2.351416E1,3.3996685E1,3.6288788E1,2.1364609E1,1.6119751E1,1.395694E1,1.235308E1,1.4462006E1,2.48398E1,3.856842E0,7.2151794E0,9.264648E0,1.8521545E1,1.3773925E1,7.8420753E0,1.2406694E1,1.2660618E0,1.1332031E1,9.181691E0,1.3208752E1,3.078743E1,5.0801506E0,3.4427338E0,6.703247E0,4.128124E0,2.79747E0,6.544983E0,6.248657E0,3.0481415E0,5.018653E0,7.132246E0,6.982979E0,4.074566E0,1.1864519E1,1.0640985E1,0E0,0E0,5.9903564E0,1.4445946E1,5.228448E0,5.9951506E0,6.3888683E0,5.937252E0,1.896128E1,4.3689976E0,2.2074394E0,4.3498178E0,4.6583786E0,3.8205986E0,1.2186413E1,8.816097E0,2.1880944E0,2.0531845E0,2.7168899E0,1.5939941E0,1.0901672E1,7.3096313E0,6.64925E0,9.312317E0,1.7300949E0,0E0,0E0,0E0,0E0,0E0,0E0,0E0,0E0,0E0,0E0,0E0,0E0,0E0,0E0,0E0,0E0,0E0,0E0,0E0,0E0,0E0,0E0,0E0,0E0,0E0,0E0,0E0,0E0,0E0,0E0,0E0,0E0,0E0,0E0,0E0,0E0,0E0,0E0,0E0,0E0,0E0,0E0,0E0,0E0,0E0,0E0,0E0,0E0,0E0,0E0,0E0,0E0,0E0,0E0,0E0,0E0,0E0,0E0,0E0],"parents":[2147483647,0,0,1,1,2,2,3,3,4,4,5,5,6,6,7,7,8,8,9,9,10,10,11,11,12,12,13,13,14,14,15,15,16,16,17,17,18,18,19,19,20,20,21,21,22,22,23,23,24,24,25,25,26,26,27,27,28,28,29,29,30,30,31,31,32,32,33,33,34,34,35,35,36,36,39,39,40,40,41,41,42,42,43,43,44,44,45,45,46,46,47,47,48,48,49,49,50,50,51,51,52,52,53,53,54,54,55,55,56,56,57,57,58,58,59,59,60,60,61,61],"right_children":[2,4,6,8,10,12,14,16,18,20,22,24,26,28,30,32,34,36,38,40,42,44,46,48,50,52,54,56,58,60,62,64,66,68,70,72,74,-1,-1,76,78,80,82,84,86,88,90,92,94,96,98,100,102,104,106,108,110,112,114,116,118,120,-1,-1,-1,-1,-1,-1,-1,-1,-1,-1,-1,-1,-1,-1,-1,-1,-1,-1,-1,-1,-1,-1,-1,-1,-1,-1,-1,-1,-1,-1,-1,-1,-1,-1,-1,-1,-1,-1,-1,-1,-1,-1,-1,-1,-1,-1,-1,-1,-1,-1,-1,-1,-1,-1,-1,-1,-1,-1,-1],"split_conditions":[-1.2247183E-1,-1.005369E0,4.661262E-1,9.649059E-2,-3.1270027E-1,1.2920824E-1,8.2326865E-1,-3.2232976E-1,1.2393421E0,-3.0678666E-1,7.670649E-1,-1.4957628E0,1.5065051E0,-4.0237474E-1,1.3490233E0,-3.7023583E-1,1.5999439E0,-1.593967E0,-3.6950275E-1,-3.8913423E-1,-1.2115757E0,1.1159995E0,1.0824068E0,-9.114745E-1,-1.659409E-2,5.7901824E-1,-9.028292E-1,-4.3066132E-1,2.7814367E-1,-3.8672686E-1,3.747344E0,1.4305968E0,-1.1963701E0,-1.0081227E0,-7.507993E-1,-1.5638871E-2,1.3415447E0,1.5096454E-1,2.0990906E-2,-4.1677088E-1,-7.721238E-2,5.100678E-1,1.5696173E0,1.3958389E-1,-2.9645056E-1,1.3684475E0,9.519774E-1,-7.607086E-1,5.7902354E-1,-8.2164234E-1,-7.29089E-1,1.6246622E0,1.7182718E-1,1.5617282E0,-3.6993292E-1,-7.06036E-3,7.604252E-1,-2.2513121E-1,7.5088483E-1,-1.4239215E0,-2.3205349E-1,2.5688052E0,-2.6728014E-2,2.4054945E-2,-7.4565224E-2,-6.193318E-2,-1.4857115E-2,-5.971685E-2,-3.0183041E-2,-8.38976E-2,1.4996141E-2,1.718608E-3,-6.65909E-2,6.7813355E-3,5.00462E-2,6.5217815E-2,1.0587758E-1,2.7376791E-2,6.6267915E-2,-1.034766E-2,-1.2944476E-1,2.7698813E-2,1.3540299E-1,3.1170273E-2,1.2525826E-3,-1.3269158E-2,8.270272E-2,-4.3282323E-2,3.7700918E-2,2.4616392E-2,1.1607293E-1,3.8631854E-3,1.4590494E-1,-8.7672256E-2,7.595301E-2,4.033365E-2,7.6271966E-2,1.24339245E-1,6.828838E-2,5.4681744E-2,-3.88727E-2,2.3459567E-2,-6.2385626E-2,8.31781E-2,-1.8500611E-2,1.5299281E-1,4.909287E-2,-6.0710985E-2,7.500563E-2,9.214438E-2,1.2330251E-1,7.9477325E-2,1.0468661E-1,8.565708E-2,6.149272E-2,1.4759292E-1,7.2053805E-2,4.683802E-2,7.825666E-2,1.1528446E-1,3.318152E-2],"split_indices":[2,2,2,5,4,1,5,4,3,6,0,0,8,4,2,6,1,2,6,4,5,8,5,8,4,0,5,4,0,4,6,3,5,5,7,7,5,0,0,2,8,0,8,4,4,8,0,7,5,3,3,1,2,8,6,0,2,8,3,1,4,7,0,0,0,0,0,0,0,0,0,0,0,0,0,0,0,0,0,0,0,0,0,0,0,0,0,0,0,0,0,0,0,0,0,0,0,0,0,0,0,0,0,0,0,0,0,0,0,0,0,0,0,0,0,0,0,0,0,0,0],"split_type":[0,0,0,0,0,0,0,0,0,0,0,0,0,0,0,0,0,0,0,0,0,0,0,0,0,0,0,0,0,0,0,0,0,0,0,0,0,0,0,0,0,0,0,0,0,0,0,0,0,0,0,0,0,0,0,0,0,0,0,0,0,0,0,0,0,0,0,0,0,0,0,0,0,0,0,0,0,0,0,0,0,0,0,0,0,0,0,0,0,0,0,0,0,0,0,0,0,0,0,0,0,0,0,0,0,0,0,0,0,0,0,0,0,0,0,0,0,0,0,0,0],"sum_hessian":[5.065934E3,2.4113435E3,2.6545906E3,1.0404678E3,1.3708756E3,5.147446E2,2.139846E3,6.336935E2,4.0677432E2,7.312807E2,6.3959485E2,2.768789E2,2.378657E2,1.5190906E3,6.207555E2,2.6827545E2,3.6541806E2,3.9980246E2,6.9718885E0,5.737187E2,1.5756204E2,4.3916068E2,2.0043417E2,2.6048475E1,2.5083043E2,2.1828584E2,1.957986E1,1.5278001E2,1.3663105E3,5.262614E2,9.449411E1,1.0247555E2,1.657999E2,3.2760934E2,3.7808697E1,1.1669049E2,2.8311194E2,5.725786E0,1.2461023E0,1.8733002E2,3.8638864E2,1.8925528E1,1.3863652E2,3.745351E2,6.462557E1,1.7484323E2,2.5590948E1,2.0687706E1,5.360769E0,1.923699E2,5.8460533E1,1.4007292E2,7.821291E1,6.9625473E0,1.2617313E1,4.3608103E0,1.484192E2,7.40006E2,6.2630457E2,7.945436E1,4.4680704E2,9.324614E1,1.2479664E0,9.799052E1,4.485032E0,4.3120518E1,1.22679375E2,1.5922646E2,1.683829E2,3.7291496E0,3.4079544E1,8.057285E1,3.611764E1,2.0527888E2,7.783308E1,1.3121452E2,5.6115494E1,1.8707251E2,1.9931615E2,1.494117E1,3.9843585E0,1.341674E2,4.469115E0,2.7856854E2,9.596656E1,6.955495E0,5.7670074E1,1.3925229E2,3.5590946E1,8.198903E0,1.7392046E1,1.2141995E0,1.9473507E1,1.4772662E0,3.8835027E0,5.406965E1,1.3830025E2,2.720867E1,3.1251863E1,1.2513739E2,1.4935537E1,6.456747E1,1.3645445E1,2.7348886E0,4.2276587E0,8.650384E0,3.9669287E0,1.4568883E0,2.9039218E0,4.0524208E1,1.07895E2,3.522694E2,3.8773654E2,4.292346E2,1.9706996E2,1.5234955E1,6.4219406E1,3.0429355E2,1.4251352E2,8.9596176E1,3.649968E0],"tree_param":{"num_deleted":"0","num_feature":"11","num_nodes":"121","size_leaf_vector":"0"}},{"base_weights":[4.375365E-1,1.3098592E-1,7.187462E-1,-1.1334424E-1,3.1672448E-1,5.3906673E-1,7.6196665E-1,-2.4431495E-1,9.042753E-2,5.6053555E-1,2.2401373E-1,3.476846E-1,7.344468E-1,8.3862233E-1,6.692281E-1,-1.917417E-1,-6.3605773E-1,6.767577E-2,1.2305524E0,7.42889E-1,3.8837728E-1,1.5025744E-1,4.7891033E-1,2.8568414E-1,8.343786E-1,8.17808E-1,5.192789E-1,9.229976E-1,7.7140945E-1,6.223098E-1,9.411123E-1,-2.7483312E-2,-3.416609E-1,1.1780353E0,-6.8294984E-1,1.8753761E-1,-1.5859993E-1,1.3936542E0,1.9830316E-1,7.5705636E-1,-5.955425E-1,4.2284057E-1,-6.81534E-1,2.1022637E-1,-2.694477E-1,3.7368402E-1,8.2786524E-1,5.897987E-1,1.811575E-1,1.0759124E0,-2.2137785E-1,9.916895E-1,7.0889467E-1,2.7614862E-1,8.4180725E-1,-6.4586364E-2,9.361658E-1,8.6936843E-1,6.55536E-1,1.037387E0,5.9553754E-1,9.586906E-1,-4.0558293E-1,-5.390094E-1,3.7541505E-2,-3.99694E-1,4.7479898E-1,6.75152E-1,-7.4978775E-1,-8.840493E-2,3.3067283E-1,-3.6690414E-1,2.862417E-1,8.737718E-1,5.767111E-1,6.565755E-1,2.6257402E-1,5.6793797E-1,-1.0849221E0,9.045738E-3,3.1444922E-1,-6.0960835E-1,-1.0851339E-1,3.0583385E-1,1.0241033E0,8.9977187E-1,-9.2843825E-1,-6.4692885E-1,6.555773E-1,1.1224353E0,1.3749601E-1,1.151395E0,7.586476E-2,-5.284303E-1,5.603269E-1,-5.8799244E-2,1.0198113E0,-9.4817705E-2,8.424971E-1,5.6341517E-1,-9.8358765E-2,9.6010333E-1,-9.0063065E-1,6.7968255E-1,-9.1593087E-1,7.605904E-1,1.008477E0,1.0492611E0,7.2976124E-1,4.636555E-1,7.98179E-1,1.0910766E0,6.672187E-2,5.229918E-1,7.735393E-1,1.0604066E0,7.166312E-1],"categories":[],"categories_nodes":[],"categories_segments":[],"categories_sizes":[],"default_left":[1,1,1,1,1,1,1,1,1,1,1,1,1,1,1,1,1,1,1,1,1,1,1,1,1,1,1,1,1,1,1,1,1,0,1,1,1,0,0,1,0,1,1,1,1,1,1,1,1,1,1,1,1,1,1,1,1,1,1,1,1,1,0,0,0,0,0,0,0,0,0,0,0,0,0,0,0,0,0,0,0,0,0,0,0,0,0,0,0,0,0,0,0,0,0,0,0,0,0,0,0,0,0,0,0,0,0,0,0,0,0,0,0,0,0,0,0],"id":4,"left_children":[1,3,5,7,9,11,13,15,17,19,21,23,25,27,29,31,33,35,37,39,41,43,45,47,49,51,53,55,57,59,61,63,65,-1,67,69,71,-1,-1,73,-1,75,77,79,81,83,85,87,89,91,93,95,97,99,101,103,105,107,109,111,113,115,-1,-1,-1,-1,-1,-1,-1,-1,-1,-1,-1,-1,-1,-1,-1,-1,-1,-1,-1,-1,-1,-1,-1,-1,-1,-1,-1,-1,-1,-1,-1,-1,-1,-1,-1,-1,-1,-1,-1,-1,-1,-1,-1,-1,-1,-1,-1,-1,-1,-1,-1,-1,-1,-1,-1],"loss_changes":[4.3305792E2,1.0918953E2,1.9939087E1,2.7764824E1,3.0767807E1,1.8871613E1,1.443811E1,1.2916176E1,1.0485882E1,1.1511208E1,1.8575314E1,7.6163635E0,4.099289E0,5.816345E0,1.1657166E1,1.3770823E1,7.1399155E0,1.0892988E1,1.055974E0,3.8911972E0,7.4942837E0,1.9455278E1,7.847332E0,7.2810535E0,7.60585E0,2.7067719E0,5.5051746E0,6.6321716E0,6.772278E0,8.510651E0,3.6862717E0,8.938187E0,1.4047886E1,0E0,7.1536713E0,1.0389105E1,1.3007397E1,0E0,0E0,3.2843246E0,0E0,6.943123E0,3.883018E0,1.4148878E1,5.2327304E0,7.2991486E0,7.2310486E0,5.224207E0,7.0133295E0,1.7004662E0,1.7863314E0,2.034401E0,1.2343891E1,4.7038555E0,7.2465076E0,5.4284573E0,5.564972E0,7.9601746E0,7.8516846E0,2.4508553E0,9.590637E0,2.6328278E0,0E0,0E0,0E0,0E0,0E0,0E0,0E0,0E0,0E0,0E0,0E0,0E0,0E0,0E0,0E0,0E0,0E0,0E0,0E0,0E0,0E0,0E0,0E0,0E0,0E0,0E0,0E0,0E0,0E0,0E0,0E0,0E0,0E0,0E0,0E0,0E0,0E0,0E0,0E0,0E0,0E0,0E0,0E0,0E0,0E0,0E0,0E0,0E0,0E0,0E0,0E0,0E0,0E0,0E0,0E0],"parents":[2147483647,0,0,1,1,2,2,3,3,4,4,5,5,6,6,7,7,8,8,9,9,10,10,11,11,12,12,13,13,14,14,15,15,16,16,17,17,18,18,19,19,20,20,21,21,22,22,23,23,24,24,25,25,26,26,27,27,28,28,29,29,30,30,31,31,32,32,34,34,35,35,36,36,39,39,41,41,42,42,43,43,44,44,45,45,46,46,47,47,48,48,49,49,50,50,51,51,52,52,53,53,54,54,55,55,56,56,57,57,58,58,59,59,60,60,61,61],"right_children":[2,4,6,8,10,12,14,16,18,20,22,24,26,28,30,32,34,36,38,40,42,44,46,48,50,52,54,56,58,60,62,64,66,-1,68,70,72,-1,-1,74,-1,76,78,80,82,84,86,88,90,92,94,96,98,100,102,104,106,108,110,112,114,116,-1,-1,-1,-1,-1,-1,-1,-1,-1,-1,-1,-1,-1,-1,-1,-1,-1,-1,-1,-1,-1,-1,-1,-1,-1,-1,-1,-1,-1,-1,-1,-1,-1,-1,-1,-1,-1,-1,-1,-1,-1,-1,-1,-1,-1,-1,-1,-1,-1,-1,-1,-1,-1,-1,-1],"split_conditions":[-1.2247183E-1,-1.005369E0,4.661262E-1,9.649059E-2,-3.7107897E-1,-3.1589143E-2,1.5308397E-1,3.1411803E-1,1.2393421E0,-3.701781E-1,1.094321E0,8.467481E-1,1.8766035E-1,-3.361721E-1,1.3490233E0,-3.701584E-1,-1.2422806E0,-2.612428E-1,-3.6950275E-1,1.3749503E0,1.3061318E0,5.3679955E-1,4.5992208E-1,-3.674679E-1,-3.6370286E-1,-7.42065E-1,1.7182718E-1,-1.3827244E0,-8.924041E-1,-4.0538394E-1,3.3802936E0,-7.4865675E-1,1.4749491E0,1.1780353E-1,-8.9247924E-1,-7.310399E-1,1.2923979E0,1.3936542E-1,1.9830316E-2,3.4520358E-1,-5.955425E-2,-3.9695817E-1,-3.6893827E-1,-7.524013E-2,-2.369647E-1,3.5653987E0,3.623881E0,-1.0973258E0,-9.7995996E-1,1.7182718E-1,9.1904604E-1,-7.941859E-1,-4.9901462E-1,-3.0848742E-1,1.0212822E0,-1.4774778E0,7.604252E-1,6.309938E-1,-2.2302586E-1,9.404714E-1,-2.3205349E-1,1.1684558E-1,-4.0558293E-2,-5.390094E-2,3.7541506E-3,-3.99694E-2,4.7479898E-2,6.75152E-2,-7.497878E-2,-8.840493E-3,3.3067282E-2,-3.6690414E-2,2.8624171E-2,8.737718E-2,5.767111E-2,6.565755E-2,2.6257401E-2,5.6793798E-2,-1.0849221E-1,9.0457377E-4,3.1444922E-2,-6.0960837E-2,-1.0851339E-2,3.0583385E-2,1.0241033E-1,8.997719E-2,-9.284382E-2,-6.4692885E-2,6.555773E-2,1.1224353E-1,1.3749601E-2,1.151395E-1,7.5864764E-3,-5.284303E-2,5.6032687E-2,-5.8799246E-3,1.01981126E-1,-9.481771E-3,8.424971E-2,5.6341518E-2,-9.8358765E-3,9.6010335E-2,-9.0063065E-2,6.796826E-2,-9.159309E-2,7.6059036E-2,1.008477E-1,1.0492611E-1,7.297613E-2,4.636555E-2,7.98179E-2,1.09107666E-1,6.6721872E-3,5.229918E-2,7.735393E-2,1.0604066E-1,7.166312E-2],"split_indices":[2,2,2,5,4,5,5,4,3,6,5,4,3,4,2,6,5,4,6,10,0,4,0,4,5,9,2,1,5,4,7,7,8,0,1,0,5,0,0,5,0,4,6,8,8,6,6,3,3,2,7,7,9,4,4,1,2,3,4,7,4,3,0,0,0,0,0,0,0,0,0,0,0,0,0,0,0,0,0,0,0,0,0,0,0,0,0,0,0,0,0,0,0,0,0,0,0,0,0,0,0,0,0,0,0,0,0,0,0,0,0,0,0,0,0,0,0],"split_type":[0,0,0,0,0,0,0,0,0,0,0,0,0,0,0,0,0,0,0,0,0,0,0,0,0,0,0,0,0,0,0,0,0,0,0,0,0,0,0,0,0,0,0,0,0,0,0,0,0,0,0,0,0,0,0,0,0,0,0,0,0,0,0,0,0,0,0,0,0,0,0,0,0,0,0,0,0,0,0,0,0,0,0,0,0,0,0,0,0,0,0,0,0,0,0,0,0,0,0,0,0,0,0,0,0,0,0,0,0,0,0,0,0,0,0,0,0],"sum_hessian":[5.0236763E3,2.4042432E3,2.6194333E3,1.0385156E3,1.3657274E3,5.105222E2,2.1089111E3,6.3206683E2,4.064488E2,3.748637E2,9.908638E2,2.5930383E2,2.5121837E2,1.1501656E3,9.587454E2,5.585914E2,7.347545E1,3.9953522E2,6.913565E0,1.8043172E2,1.94432E2,7.6972687E2,2.2113689E2,2.3141112E2,2.789271E1,1.7904953E2,7.216884E1,5.0432837E2,6.458373E2,8.204515E2,1.3829398E2,2.6711316E2,2.9147818E2,1.2435749E0,7.223187E1,2.6129453E2,1.3824068E2,5.6678896E0,1.2456756E0,1.7897165E2,1.460058E0,1.8895044E2,5.4815607E0,6.739322E2,9.579467E1,1.714942E2,4.96427E1,5.80053E1,1.7340582E2,2.2684015E1,5.2086945E0,6.583608E1,1.1321345E2,4.2207752E1,2.996109E1,6.584744E0,4.9774362E2,3.4644827E2,2.9938898E2,4.74251E1,7.7302637E2,1.3679651E2,1.4974742E0,2.930357E1,2.378096E2,2.726117E2,1.8866497E1,2.9611864E0,6.927069E1,8.937526E1,1.7191928E2,9.427166E1,4.3969013E1,1.06319214E2,7.2652435E1,7.559902E1,1.1335142E2,1.2382454E0,4.243315E0,2.3035887E2,4.4357333E2,2.9870537E1,6.592413E1,1.566256E2,1.4868596E1,4.8158672E1,1.4840244E0,2.483182E0,5.5522118E1,6.591658E0,1.6681416E2,2.0951292E1,1.7327228E0,3.9723601E0,1.2363343E0,1.6880479E0,6.414803E1,1.6178532E1,9.703491E1,2.3600517E1,1.8607233E1,2.847676E1,1.4843302E0,3.6208944E0,2.9638498E0,1.485571E2,3.4918655E2,1.4853539E2,1.979129E2,1.2947382E2,1.6991516E2,4.4821854E1,2.6032429E0,5.5199524E2,2.210311E2,9.39408E1,4.28557E1],"tree_param":{"num_deleted":"0","num_feature":"11","num_nodes":"117","size_leaf_vector":"0"}},{"base_weights":[3.9823198E-1,1.1854252E-1,6.577889E-1,-1.02024265E-1,2.8661174E-1,4.9126017E-1,6.981112E-1,-3.4479788E-1,-8.904453E-3,4.1646686E-1,1.387685E-1,3.393352E-1,7.0135415E-1,9.648807E-1,6.72774E-1,-7.7070385E-1,-2.7581757E-1,5.994535E-2,-3.1549412E-1,4.723367E-1,1.2880842E-1,2.5996014E-1,-1.2673017E-1,2.8213102E-1,7.383154E-1,-4.7213718E-1,7.16169E-1,-1.8589239E-1,9.7976905E-1,7.9626924E-1,6.1944443E-1,2.0978734E-1,-8.846666E-1,7.232057E-1,-3.0004457E-1,1.4667956E-2,4.0154314E-1,-4.4338214E-1,4.044093E-1,-2.4708763E-1,4.9105704E-1,6.514182E-1,-2.8728949E-2,1.9587076E-1,6.29996E-1,-3.906366E-1,3.0665147E-1,5.264976E-1,1.3452971E-1,8.6985064E-1,-4.7826174E-1,1.0492238E0,6.6361856E-1,1.025683E0,6.474689E-1,8.4411055E-1,4.5276877E-1,6.436776E-1,3.255576E-1,7.476097E-1,-6.2952954E-1,-1.0783795E0,-9.7780965E-2,1.2155716E0,-2.1539776E-1,-3.4876E-1,2.1366853E-1,3.149527E-2,-1.2389075E0,7.8402126E-1,3.14151E-2,-5.3496003E-1,1.8962796E-1,5.253554E-2,1.0543784E0,5.642611E-1,-8.108529E-1,6.518771E-1,4.1947266E-1,3.2850856E-1,1.0543236E0,-1.463901E-1,5.524778E-1,1.5244338E-1,4.9818826E-1,-1.5466633E-1,7.2772694E-1,-4.546459E-1,1.252738E0,6.924982E-1,2.654669E-2,6.865861E-1,1.731122E-1,-7.531179E-1,1.8145531E-1,1.0024545E0,-2.2541273E-1,-1.079874E0,5.482485E-1,-2.942016E-2,1.123225E0,-3.0166432E-1,6.753821E-1,4.0682197E-1,1.0541203E0,2.2504602E-1,1.2307653E0,7.394244E-1,1.0032909E0,5.484898E-1,-9.9719614E-1,6.2409025E-1,9.4315654E-1,-7.543822E-1,4.3812764E-1],"categories":[],"categories_nodes":[],"categories_segments":[],"categories_sizes":[],"default_left":[1,1,1,1,1,1,1,1,1,1,1,1,1,1,1,1,1,1,1,1,1,1,1,1,1,0,1,0,1,1,1,1,1,1,1,1,1,1,1,1,1,1,1,1,1,1,1,1,1,1,1,1,1,1,1,1,1,1,1,0,0,0,0,0,0,0,0,0,0,0,0,0,0,0,0,0,0,0,0,0,0,0,0,0,0,0,0,0,0,0,0,0,0,0,0,0,0,0,0,0,0,0,0,0,0,0,0,0,0,0,0,0,0,0,0],"id":5,"left_children":[1,3,5,7,9,11,13,15,17,19,21,23,25,27,29,31,33,35,37,39,41,43,45,47,49,-1,51,-1,53,55,57,59,61,63,65,67,69,71,73,75,77,79,81,83,85,87,89,91,93,95,97,99,101,103,105,107,109,111,113,-1,-1,-1,-1,-1,-1,-1,-1,-1,-1,-1,-1,-1,-1,-1,-1,-1,-1,-1,-1,-1,-1,-1,-1,-1,-1,-1,-1,-1,-1,-1,-1,-1,-1,-1,-1,-1,-1,-1,-1,-1,-1,-1,-1,-1,-1,-1,-1,-1,-1,-1,-1,-1,-1,-1,-1],"loss_changes":[3.61258E2,8.888739E1,1.6990479E1,2.3448204E1,2.6064438E1,1.5931168E1,1.3381714E1,8.235592E0,1.5867016E1,1.1573265E1,2.0553686E1,6.5456696E0,4.0177307E0,3.2275848E0,1.2013916E1,4.6019974E0,6.2444153E0,9.489789E0,1.287006E1,8.28006E0,9.824832E0,1.0268908E1,2.3057291E1,9.322727E0,6.255167E0,0E0,2.968872E0,0E0,2.0157013E0,8.972565E0,9.26828E0,2.6932912E0,5.3210945E0,3.1222024E0,6.176882E0,1.1495988E1,1.0141821E1,6.914406E0,4.8198004E0,7.7893524E0,6.5275574E0,3.2483664E0,6.404932E0,4.846962E0,5.0389385E0,1.37276535E1,8.245655E0,5.409851E0,6.955612E0,5.060009E0,3.1892016E0,2.1736584E0,2.2884674E0,2.256836E0,5.6449966E0,7.5651245E0,1.0504883E1,6.6173096E0,1.2900735E1,0E0,0E0,0E0,0E0,0E0,0E0,0E0,0E0,0E0,0E0,0E0,0E0,0E0,0E0,0E0,0E0,0E0,0E0,0E0,0E0,0E0,0E0,0E0,0E0,0E0,0E0,0E0,0E0,0E0,0E0,0E0,0E0,0E0,0E0,0E0,0E0,0E0,0E0,0E0,0E0,0E0,0E0,0E0,0E0,0E0,0E0,0E0,0E0,0E0,0E0,0E0,0E0,0E0,0E0,0E0,0E0],"parents":[2147483647,0,0,1,1,2,2,3,3,4,4,5,5,6,6,7,7,8,8,9,9,10,10,11,11,12,12,13,13,14,14,15,15,16,16,17,17,18,18,19,19,20,20,21,21,22,22,23,23,24,24,26,26,28,28,29,29,30,30,31,31,32,32,33,33,34,34,35,35,36,36,37,37,38,38,39,39,40,40,41,41,42,42,43,43,44,44,45,45,46,46,47,47,48,48,49,49,50,50,51,51,52,52,53,53,54,54,55,55,56,56,57,57,58,58],"right_children":[2,4,6,8,10,12,14,16,18,20,22,24,26,28,30,32,34,36,38,40,42,44,46,48,50,-1,52,-1,54,56,58,60,62,64,66,68,70,72,74,76,78,80,82,84,86,88,90,92,94,96,98,100,102,104,106,108,110,112,114,-1,-1,-1,-1,-1,-1,-1,-1,-1,-1,-1,-1,-1,-1,-1,-1,-1,-1,-1,-1,-1,-1,-1,-1,-1,-1,-1,-1,-1,-1,-1,-1,-1,-1,-1,-1,-1,-1,-1,-1,-1,-1,-1,-1,-1,-1,-1,-1,-1,-1,-1,-1,-1,-1,-1,-1],"split_conditions":[-1.2247183E-1,-1.005369E0,4.661262E-1,-1.030909E0,-3.1270027E-1,3.049925E-1,-4.0237474E-1,-7.507993E-1,3.7270762E-2,-8.585309E-2,7.670649E-1,8.3772045E-1,-8.9783144E-1,-1.8217102E0,-8.238963E-1,-9.657009E-1,-2.1978035E0,1.2974465E0,1.292398E0,-1.7792649E0,-1.4755383E0,1.1199439E0,-4.7817547E-3,-3.415887E-1,1.7182718E-1,-4.721372E-2,-1.3139844E0,-1.858924E-2,-2.9032493E-1,1.3490233E0,2.612352E0,8.122728E-1,1.2238617E0,1.4104373E0,1.2363068E0,1.795053E0,5.0410163E-1,1.3074446E0,-4.846282E-1,-1.7715645E0,-6.9473326E-1,-1.7299587E0,1.2540569E0,1.477071E0,-2.9645056E-1,1.5893397E0,-5.917406E-1,5.194702E-1,-3.3256108E-1,1.0824711E0,4.917425E-1,4.8370838E-1,-1.276375E0,-1.2311304E0,1.0008367E0,4.7304565E-1,1.7480414E0,2.2795615E0,2.8116255E0,7.4760966E-2,-6.295296E-2,-1.0783795E-1,-9.778096E-3,1.2155717E-1,-2.1539776E-2,-3.4876E-2,2.1366853E-2,3.149527E-3,-1.2389075E-1,7.8402124E-2,3.14151E-3,-5.3496003E-2,1.8962797E-2,5.2535543E-3,1.0543784E-1,5.6426108E-2,-8.108529E-2,6.5187715E-2,4.1947268E-2,3.2850858E-2,1.05432354E-1,-1.463901E-2,5.524778E-2,1.5244338E-2,4.9818825E-2,-1.5466633E-2,7.27727E-2,-4.546459E-2,1.2527381E-1,6.924982E-2,2.654669E-3,6.865861E-2,1.7311221E-2,-7.5311795E-2,1.8145531E-2,1.0024545E-1,-2.2541273E-2,-1.07987404E-1,5.4824855E-2,-2.942016E-3,1.123225E-1,-3.0166432E-2,6.753821E-2,4.0682197E-2,1.0541203E-1,2.2504603E-2,1.23076536E-1,7.3942445E-2,1.0032909E-1,5.484898E-2,-9.9719614E-2,6.2409025E-2,9.4315656E-2,-7.5438224E-2,4.3812763E-2],"split_indices":[2,2,2,5,4,5,4,7,4,6,0,4,7,0,5,9,0,8,5,8,8,8,5,4,2,0,0,0,6,2,6,8,3,1,8,0,1,1,1,0,1,8,8,5,4,8,1,0,4,8,1,5,0,5,6,8,0,7,6,0,0,0,0,0,0,0,0,0,0,0,0,0,0,0,0,0,0,0,0,0,0,0,0,0,0,0,0,0,0,0,0,0,0,0,0,0,0,0,0,0,0,0,0,0,0,0,0,0,0,0,0,0,0,0,0],"split_type":[0,0,0,0,0,0,0,0,0,0,0,0,0,0,0,0,0,0,0,0,0,0,0,0,0,0,0,0,0,0,0,0,0,0,0,0,0,0,0,0,0,0,0,0,0,0,0,0,0,0,0,0,0,0,0,0,0,0,0,0,0,0,0,0,0,0,0,0,0,0,0,0,0,0,0,0,0,0,0,0,0,0,0,0,0,0,0,0,0,0,0,0,0,0,0,0,0,0,0,0,0,0,0,0,0,0,0,0,0,0,0,0,0,0,0],"sum_hessian":[4.9763994E3,2.396005E3,2.5803945E3,1.0363444E3,1.3596606E3,5.055764E2,2.0748184E3,2.865567E2,7.4978766E2,7.2289954E2,6.367611E2,2.9492374E2,2.1065265E2,1.7675198E2,1.8980663E3,3.85241E1,2.480326E2,6.129451E2,1.3684253E2,6.047929E2,1.1810663E2,4.3720975E2,1.9955139E2,2.594342E2,3.5489517E1,2.2413967E0,2.0841125E2,2.1108482E0,1.7464113E2,5.6824695E2,1.3298193E3,3.9238636E0,3.4600235E1,5.189452E0,2.4284314E2,5.421308E2,7.0814285E1,1.16526215E2,2.0316319E1,1.5028981E1,5.897639E2,2.663001E1,9.1476616E1,3.7396857E2,6.324118E1,1.2408739E2,7.5464005E1,9.672713E1,1.6270708E2,3.2284E1,3.2055142E0,2.5817675E1,1.8259358E2,1.5160692E2,2.3034206E1,4.9749988E2,7.074708E1,1.2274193E3,1.0239999E2,2.4580464E0,1.4658172E0,2.7467852E1,7.1323833E0,3.2103195E0,1.9791324E0,2.2210226E2,2.0740871E1,5.359119E2,6.218914E0,3.4276176E1,3.6538113E1,1.01934235E2,1.4591979E1,1.3881902E1,6.434416E0,6.1611776E0,8.867804E0,1.7916003E2,4.106039E2,1.5790232E1,1.0839779E1,7.6697815E1,1.4778798E1,3.2831143E2,4.5657116E1,6.939858E0,5.6301323E1,1.20131615E2,3.955771E0,3.1121534E1,4.4342464E1,6.592109E1,3.0806042E1,7.41401E0,1.5529308E2,2.8873066E1,3.4109354E0,1.9882592E0,1.217255E0,1.6962022E0,2.4121471E1,1.9017001E0,1.8069188E2,7.332846E0,1.4427408E2,1.416311E1,8.871097E0,3.0352783E2,1.9397205E2,6.694908E1,3.7979963E0,1.1549633E3,7.245605E1,9.12811E0,9.327188E1],"tree_param":{"num_deleted":"0","num_feature":"11","num_nodes":"115","size_leaf_vector":"0"}},{"base_weights":[3.6251655E-1,1.0732221E-1,6.0231733E-1,-9.204264E-2,2.5957873E-1,5.097996E-1,6.6799134E-1,-2.0354389E-1,8.104008E-2,4.9308765E-1,1.8652102E-1,4.8813462E-1,8.4601724E-1,9.420739E-1,6.423055E-1,4.2373665E-2,-2.6779523E-1,-1.513561E-1,1.7809018E-1,6.6217047E-1,3.4643522E-1,2.2762674E-1,-1.22503236E-1,6.1492676E-1,4.2577574E-1,1.2326598E0,6.9047797E-1,-4.804285E-1,9.595403E-1,6.676245E-1,3.630699E-1,1.353702E-1,-7.489079E-1,-1.4465337E-1,-4.0991578E-1,-6.3588625E-1,2.5302883E-2,1.2656581E-1,7.003855E-1,1.0016373E0,5.7135874E-1,5.591093E-1,1.2232304E-1,1.8615903E-1,5.2344495E-1,3.9688295E-1,-2.5932306E-1,6.676139E-1,8.326135E-2,3.5918367E-1,6.743243E-1,-2.3808263E-2,1.3736444E0,8.4381557E-1,1.3067846E-1,6.347805E-2,9.792987E-1,6.507217E-1,9.564168E-1,4.2729354E-1,-5.1873034E-1,-5.780655E-1,2.8479883E-1,-1.2094377E0,2.4998799E-1,-8.367001E-1,-9.958441E-2,-6.81312E-1,-2.584368E-1,-3.5655785E-1,-1.2941636E0,3.093893E-1,-4.783555E-1,7.8426495E-2,7.715518E-1,-5.607547E-1,8.917101E-1,-1.182238E-2,1.1322412E0,2.3325375E-1,6.9414985E-1,6.0671926E-1,-6.901538E-1,-6.065526E-2,5.121523E-1,4.1509368E-2,2.8500298E-1,6.253989E-1,-2.4784245E-1,6.6402143E-1,-2.9197118E-1,-3.5477722E-1,3.6069033E-1,6.353786E-1,1.230716E0,1.8842685E-1,-1.36671E0,3.101697E-1,6.9559455E-1,7.1135867E-1,-3.1084585E-1,1.4305595E0,3.6516288E-1,9.5836353E-1,-7.0725836E-2,-3.8154408E-1,1.0418396E0,5.6963485E-1,-5.815302E-1,1.8321948E-1,1.002834E0,6.766211E-1,3.5647357E-1,1.1060102E0,3.582222E-1,4.627919E-2,5.614703E-1,-1.0385929E0,5.479288E-1],"categories":[],"categories_nodes":[],"categories_segments":[],"categories_sizes":[],"default_left":[1,1,1,1,1,1,1,1,1,1,1,1,1,1,1,1,1,1,1,1,1,1,1,1,1,1,1,0,1,1,1,1,1,1,1,1,1,1,1,1,1,1,1,1,1,1,1,1,1,1,1,0,1,1,1,1,1,1,1,1,1,0,0,0,0,0,0,0,0,0,0,0,0,0,0,0,0,0,0,0,0,0,0,0,0,0,0,0,0,0,0,0,0,0,0,0,0,0,0,0,0,0,0,0,0,0,0,0,0,0,0,0,0,0,0,0,0,0,0],"id":6,"left_children":[1,3,5,7,9,11,13,15,17,19,21,23,25,27,29,31,33,35,37,39,41,43,45,47,49,51,53,-1,55,57,59,61,63,65,67,69,71,73,75,77,79,81,83,85,87,89,91,93,95,97,99,-1,101,103,105,107,109,111,113,115,117,-1,-1,-1,-1,-1,-1,-1,-1,-1,-1,-1,-1,-1,-1,-1,-1,-1,-1,-1,-1,-1,-1,-1,-1,-1,-1,-1,-1,-1,-1,-1,-1,-1,-1,-1,-1,-1,-1,-1,-1,-1,-1,-1,-1,-1,-1,-1,-1,-1,-1,-1,-1,-1,-1,-1,-1,-1,-1],"loss_changes":[3.0156537E2,7.254233E1,1.50980835E1,1.9995228E1,2.3020744E1,7.3015747E0,9.833862E0,9.964163E0,9.191141E0,7.7614365E0,1.315686E1,7.6237335E0,2.922512E0,3.5645676E0,9.364929E0,9.766787E0,8.68343E0,1.0307948E1,7.6370525E0,4.008209E0,8.257015E0,1.1096966E1,8.771923E0,9.091698E0,1.0876785E1,2.9959145E0,3.9259853E0,0E0,2.1284637E0,5.4536743E0,6.7436066E0,1.2784981E1,6.72722E0,8.312792E0,9.335396E0,5.45265E0,1.2892811E1,8.090729E0,6.666666E0,3.9883976E0,4.8014984E0,5.732647E0,6.1889687E0,1.1453892E1,8.934229E0,4.9472036E0,5.8782287E0,4.608429E0,4.9213657E0,8.555855E0,5.3587875E0,0E0,3.4186363E-1,3.9153519E0,5.6684985E0,1.551868E0,2.083168E0,8.74408E0,5.572178E0,5.4898624E0,5.154842E0,0E0,0E0,0E0,0E0,0E0,0E0,0E0,0E0,0E0,0E0,0E0,0E0,0E0,0E0,0E0,0E0,0E0,0E0,0E0,0E0,0E0,0E0,0E0,0E0,0E0,0E0,0E0,0E0,0E0,0E0,0E0,0E0,0E0,0E0,0E0,0E0,0E0,0E0,0E0,0E0,0E0,0E0,0E0,0E0,0E0,0E0,0E0,0E0,0E0,0E0,0E0,0E0,0E0,0E0,0E0,0E0,0E0,0E0],"parents":[2147483647,0,0,1,1,2,2,3,3,4,4,5,5,6,6,7,7,8,8,9,9,10,10,11,11,12,12,13,13,14,14,15,15,16,16,17,17,18,18,19,19,20,20,21,21,22,22,23,23,24,24,25,25,26,26,28,28,29,29,30,30,31,31,32,32,33,33,34,34,35,35,36,36,37,37,38,38,39,39,40,40,41,41,42,42,43,43,44,44,45,45,46,46,47,47,48,48,49,49,50,50,52,52,53,53,54,54,55,55,56,56,57,57,58,58,59,59,60,60],"right_children":[2,4,6,8,10,12,14,16,18,20,22,24,26,28,30,32,34,36,38,40,42,44,46,48,50,52,54,-1,56,58,60,62,64,66,68,70,72,74,76,78,80,82,84,86,88,90,92,94,96,98,100,-1,102,104,106,108,110,112,114,116,118,-1,-1,-1,-1,-1,-1,-1,-1,-1,-1,-1,-1,-1,-1,-1,-1,-1,-1,-1,-1,-1,-1,-1,-1,-1,-1,-1,-1,-1,-1,-1,-1,-1,-1,-1,-1,-1,-1,-1,-1,-1,-1,-1,-1,-1,-1,-1,-1,-1,-1,-1,-1,-1,-1,-1,-1,-1,-1],"split_conditions":[-1.2247183E-1,-1.005369E0,7.604252E-1,9.649059E-2,-3.776992E-1,1.4946716E0,-4.0237474E-1,-3.7709737E-1,-1.593967E0,-3.7019283E-1,5.3679955E-1,-3.6084765E-1,-3.375767E-1,-1.8217102E0,2.187813E0,-1.09032705E-1,2.7187544E-1,-7.247716E-1,1.3999038E0,-7.110699E-1,2.4731472E-2,1.3682337E0,-9.9346423E-1,8.924293E-1,3.080996E-1,-1.1461806E0,1.5893397E0,-4.804285E-2,-4.3066132E-1,2.3813324E0,1.1851941E-1,-1.2134821E0,1.3184622E-1,-8.522992E-1,-1.030909E0,9.9522874E-2,-1.8541074E-1,1.6870621E0,2.0074153E-1,-4.1952723E-1,-5.1478624E-1,1.7262958E0,-4.1677088E-1,-8.312913E-2,2.5597289E0,-4.1677088E-1,1.7625093E0,1.5500467E0,1.795053E0,8.4941334E-1,1.3191413E0,-2.3808263E-3,7.409848E-1,1.3256993E0,1.6208956E0,-4.324668E-1,-1.2881415E0,9.297588E-1,1.1658075E0,2.9935708E0,1.055403E0,-5.780655E-2,2.8479883E-2,-1.2094378E-1,2.4998799E-2,-8.367001E-2,-9.958441E-3,-6.81312E-2,-2.584368E-2,-3.5655785E-2,-1.2941636E-1,3.0938929E-2,-4.783555E-2,7.84265E-3,7.715518E-2,-5.6075472E-2,8.9171015E-2,-1.182238E-3,1.1322413E-1,2.3325374E-2,6.941499E-2,6.0671926E-2,-6.9015376E-2,-6.065526E-3,5.121523E-2,4.150937E-3,2.8500298E-2,6.253989E-2,-2.4784245E-2,6.6402145E-2,-2.9197117E-2,-3.5477724E-2,3.606903E-2,6.353786E-2,1.230716E-1,1.8842686E-2,-1.3667099E-1,3.101697E-2,6.9559455E-2,7.113587E-2,-3.1084586E-2,1.4305596E-1,3.651629E-2,9.583636E-2,-7.072584E-3,-3.815441E-2,1.04183964E-1,5.6963485E-2,-5.8153022E-2,1.8321948E-2,1.002834E-1,6.766211E-2,3.564736E-2,1.1060102E-1,3.582222E-2,4.627919E-3,5.6147035E-2,-1.038593E-1,5.479288E-2],"split_indices":[2,2,2,5,4,8,4,4,2,6,4,4,3,0,6,5,0,0,9,2,3,9,3,0,4,5,8,0,4,7,4,5,8,10,5,7,4,5,5,4,0,9,2,8,9,2,9,5,0,7,8,0,1,9,8,4,3,7,5,6,0,0,0,0,0,0,0,0,0,0,0,0,0,0,0,0,0,0,0,0,0,0,0,0,0,0,0,0,0,0,0,0,0,0,0,0,0,0,0,0,0,0,0,0,0,0,0,0,0,0,0,0,0,0,0,0,0,0,0],"split_type":[0,0,0,0,0,0,0,0,0,0,0,0,0,0,0,0,0,0,0,0,0,0,0,0,0,0,0,0,0,0,0,0,0,0,0,0,0,0,0,0,0,0,0,0,0,0,0,0,0,0,0,0,0,0,0,0,0,0,0,0,0,0,0,0,0,0,0,0,0,0,0,0,0,0,0,0,0,0,0,0,0,0,0,0,0,0,0,0,0,0,0,0,0,0,0,0,0,0,0,0,0,0,0,0,0,0,0,0,0,0,0,0,0,0,0,0,0,0,0],"sum_hessian":[4.927934E3,2.388043E3,2.5398914E3,1.0342242E3,1.3538187E3,1.0580852E3,1.481806E3,6.2890356E2,4.0532065E2,3.2125763E2,1.032561E3,9.9633575E2,6.174943E1,1.2391245E2,1.3578937E3,1.3034764E2,4.9855594E2,1.19236755E2,2.860839E2,1.475847E2,1.7367293E2,9.115695E2,1.2099155E2,3.2554843E2,6.7078735E2,1.5727826E1,4.6021606E1,1.1815164E0,1.22730934E2,1.2437307E3,1.1416293E2,1.1738117E2,1.2966472E1,2.681941E2,2.3036185E2,3.1163576E1,8.807318E1,2.6152664E2,2.4557243E1,2.9031418E1,1.1855328E2,8.83435E1,8.532944E1,8.009253E2,1.106442E2,2.4830585E1,9.6160965E1,2.9596323E2,2.958518E1,5.3097235E2,1.39815E2,1.6705806E0,1.4057245E1,3.572785E1,1.0293756E1,2.7387457E0,1.19992195E2,1.1780345E3,6.56961E1,1.0689308E2,7.2698517E0,1.983101E1,9.755016E1,8.730567E0,4.235905E0,1.5324047E1,2.5287006E2,8.126545E1,1.490964E2,2.2961796E1,8.20178E0,5.655774E1,3.151544E1,2.4440665E2,1.7119993E1,2.9804335E0,2.157681E1,3.417988E0,2.561343E1,3.235726E1,8.619602E1,8.559574E1,2.747753E0,5.8646374E1,2.6683067E1,3.2570456E2,4.7522073E2,9.789318E1,1.2751025E1,1.7918009E1,6.912576E0,8.3702354E1,1.2458607E1,2.8195102E2,1.4012205E1,2.8395706E1,1.1894746E0,4.6512683E2,6.58455E1,1.3501738E2,4.797623E0,1.2910116E1,1.1471293E0,3.1708399E1,4.0194516E0,6.9615006E0,3.3322546E0,1.6000199E0,1.1387259E0,3.6978438E0,1.1629435E2,1.0815393E3,9.649525E1,5.1874638E1,1.3821456E1,2.8189583E1,7.87035E1,4.9053974E0,2.3644543E0],"tree_param":{"num_deleted":"0","num_feature":"11","num_nodes":"119","size_leaf_vector":"0"}},{"base_weights":[3.3001894E-1,9.698835E-2,5.517061E-1,-8.3425045E-2,2.3512036E-1,3.598051E-1,5.805149E-1,-2.7018926E-1,8.175328E-3,4.313673E-1,1.619404E-1,2.5959566E-1,6.9932705E-1,8.71407E-1,5.5935764E-1,2.0941646E-1,-3.4502774E-1,-4.1900598E-2,4.0139386E-1,5.926287E-1,2.868266E-1,9.900852E-2,3.8108566E-1,8.6059916E-1,2.1158668E-1,7.8899354E-1,4.9746767E-2,-2.7011913E-1,8.9354557E-1,5.1472706E-1,6.6618633E-1,3.862628E-1,-1.1863189E0,-1.2983836E-1,-4.6406832E-1,7.952232E-2,-2.1299966E-1,-7.22216E-2,6.161463E-1,7.178007E-1,4.0616423E-1,3.1846035E-1,-6.846584E-1,1.9352245E-1,-9.029148E-2,2.869519E-1,6.976727E-1,9.7311217E-1,-4.1260093E-1,3.37942E-1,5.9936002E-2,2.4592657E-1,8.9633805E-1,-7.743515E-1,4.115537E-1,-7.393755E-1,3.7517205E-1,1.0355233E0,7.259729E-1,4.9371785E-1,8.2478446E-1,7.269736E-1,5.1943135E-1,-6.3627404E-1,4.7950208E-1,-1.6903624E-1,-1.4457647E0,1.173348E-1,-5.678793E-1,-5.6544E-1,-1.4916897E-1,2.0368668E-1,-1.3886432E-1,-2.7144057E-1,3.0347654E-1,-6.99717E-1,6.1332387E-1,3.8586968E-1,1.1060764E0,-1.7928396E-1,7.5756717E-1,-6.5705514E-1,4.8757818E-1,1.4348254E-1,5.235995E-1,4.992773E-1,-1.0549042E0,2.2109402E-2,3.217932E-1,2.7130106E-1,-2.785896E-1,3.5605976E-1,-2.8679615E-1,8.163112E-1,-4.2448935E-1,2.8670885E-2,1.0509051E0,5.1953185E-1,-8.124504E-2,-3.3205146E-1,2.832495E-1,4.7913244E-1,-6.7064476E-1,1.0620776E0,4.367634E-1,1.2251638E0,-2.5726095E-1,5.084697E-2,1.0815276E0,8.771813E-3,7.793031E-1,6.2275356E-1,4.3265736E-1,1.840929E-1,9.0581775E-1,7.903726E-1,5.473404E-1,3.3652478E-1,7.701713E-1],"categories":[],"categories_nodes":[],"categories_segments":[],"categories_sizes":[],"default_left":[1,1,1,1,1,1,1,1,1,1,1,1,1,1,1,1,1,1,1,1,1,1,1,1,1,1,1,1,1,1,1,1,1,1,1,1,1,1,1,1,1,1,1,1,1,1,1,1,0,1,1,1,1,0,1,0,0,1,1,1,1,1,1,0,0,0,0,0,0,0,0,0,0,0,0,0,0,0,0,0,0,0,0,0,0,0,0,0,0,0,0,0,0,0,0,0,0,0,0,0,0,0,0,0,0,0,0,0,0,0,0,0,0,0,0,0,0,0,0],"id":7,"left_children":[1,3,5,7,9,11,13,15,17,19,21,23,25,27,29,31,33,35,37,39,41,43,45,47,49,51,53,55,57,59,61,63,65,67,69,71,73,75,77,79,81,83,85,87,89,91,93,95,-1,97,99,101,103,-1,105,-1,-1,107,109,111,113,115,117,-1,-1,-1,-1,-1,-1,-1,-1,-1,-1,-1,-1,-1,-1,-1,-1,-1,-1,-1,-1,-1,-1,-1,-1,-1,-1,-1,-1,-1,-1,-1,-1,-1,-1,-1,-1,-1,-1,-1,-1,-1,-1,-1,-1,-1,-1,-1,-1,-1,-1,-1,-1,-1,-1,-1,-1],"loss_changes":[2.5205334E2,5.9341415E1,1.361615E1,1.7673794E1,1.9295624E1,1.1013638E1,1.2884338E1,1.2273802E1,1.3682621E1,8.353004E0,1.3529934E1,7.1943054E0,4.293915E0,3.9188309E0,9.327026E0,1.1937708E1,7.482071E0,1.2825503E1,8.028051E0,3.7204552E0,6.2033978E0,1.3716192E1,6.3303337E0,3.0638304E0,4.541506E0,3.5864716E0,3.327455E0,1.3482146E0,2.6499863E0,8.939911E0,4.923523E0,4.3124347E0,1.2008052E0,1.1571127E1,5.9546165E0,9.826352E0,7.814925E0,1.1348275E1,5.6779003E0,3.7583923E0,6.4961205E0,6.7198524E0,3.3581316E0,1.1228388E1,1.7482464E1,6.8668537E0,6.939863E0,1.2463341E0,0E0,9.910972E0,9.672012E0,2.9196537E0,3.6605606E0,0E0,4.4862843E0,0E0,0E0,3.3450089E0,2.6294212E0,1.033847E1,4.483349E0,4.32428E0,7.8836327E0,0E0,0E0,0E0,0E0,0E0,0E0,0E0,0E0,0E0,0E0,0E0,0E0,0E0,0E0,0E0,0E0,0E0,0E0,0E0,0E0,0E0,0E0,0E0,0E0,0E0,0E0,0E0,0E0,0E0,0E0,0E0,0E0,0E0,0E0,0E0,0E0,0E0,0E0,0E0,0E0,0E0,0E0,0E0,0E0,0E0,0E0,0E0,0E0,0E0,0E0,0E0,0E0,0E0,0E0,0E0,0E0],"parents":[2147483647,0,0,1,1,2,2,3,3,4,4,5,5,6,6,7,7,8,8,9,9,10,10,11,11,12,12,13,13,14,14,15,15,16,16,17,17,18,18,19,19,20,20,21,21,22,22,23,23,24,24,25,25,26,26,27,27,28,28,29,29,30,30,31,31,32,32,33,33,34,34,35,35,36,36,37,37,38,38,39,39,40,40,41,41,42,42,43,43,44,44,45,45,46,46,47,47,49,49,50,50,51,51,52,52,54,54,57,57,58,58,59,59,60,60,61,61,62,62],"right_children":[2,4,6,8,10,12,14,16,18,20,22,24,26,28,30,32,34,36,38,40,42,44,46,48,50,52,54,56,58,60,62,64,66,68,70,72,74,76,78,80,82,84,86,88,90,92,94,96,-1,98,100,102,104,-1,106,-1,-1,108,110,112,114,116,118,-1,-1,-1,-1,-1,-1,-1,-1,-1,-1,-1,-1,-1,-1,-1,-1,-1,-1,-1,-1,-1,-1,-1,-1,-1,-1,-1,-1,-1,-1,-1,-1,-1,-1,-1,-1,-1,-1,-1,-1,-1,-1,-1,-1,-1,-1,-1,-1,-1,-1,-1,-1,-1,-1,-1,-1],"split_conditions":[-1.2247183E-1,-1.005369E0,1.7182718E-1,-1.593967E0,-3.7107897E-1,3.2013643E-1,-4.0538394E-1,-3.8973606E-1,1.3415447E0,-3.7018526E-1,1.094321E0,-1.3236122E0,1.1633334E0,-1.5929202E0,7.2943825E-1,-2.851265E-1,-3.7024865E-1,-2.8080267E-1,-1.0068415E0,3.4520358E-1,1.3061318E0,7.231873E-1,4.5992208E-1,7.451261E-1,-3.0908924E-1,-1.238024E0,-6.284065E-1,-3.7002778E-1,-3.7017268E-1,2.1724343E0,7.3573375E-1,-1.185647E0,-5.003895E-1,8.5418105E-2,8.0786604E-1,-3.6954045E-1,1.317169E0,-3.3195925E-1,-1.2996678E0,-1.6293738E0,-7.143761E-1,-2.9218775E-1,-3.6893827E-1,-6.3406624E-2,-2.9404318E-1,2.4053437E-1,1.1333004E0,-2.537446E0,-4.1260093E-2,5.1320195E-1,-3.7024292E-1,-1.313251E0,3.2040244E-1,-7.743515E-2,1.6915557E-1,-7.393755E-2,3.7517205E-2,-4.3066132E-1,-3.7012136E-1,-3.6265317E-1,-1.4107597E0,-3.516448E-1,1.187973E0,-6.362741E-2,4.795021E-2,-1.6903624E-2,-1.4457648E-1,1.173348E-2,-5.6787934E-2,-5.6544002E-2,-1.4916897E-2,2.036867E-2,-1.3886432E-2,-2.7144058E-2,3.0347655E-2,-6.99717E-2,6.1332386E-2,3.858697E-2,1.1060764E-1,-1.7928397E-2,7.575672E-2,-6.5705515E-2,4.8757818E-2,1.4348254E-2,5.235995E-2,4.992773E-2,-1.05490424E-1,2.2109402E-3,3.2179322E-2,2.7130106E-2,-2.7858961E-2,3.560598E-2,-2.8679615E-2,8.163112E-2,-4.2448934E-2,2.8670884E-3,1.05090514E-1,5.1953185E-2,-8.124504E-3,-3.3205148E-2,2.832495E-2,4.7913246E-2,-6.706448E-2,1.06207766E-1,4.3676343E-2,1.22516386E-1,-2.5726095E-2,5.084697E-3,1.0815276E-1,8.7718124E-4,7.793031E-2,6.2275358E-2,4.3265738E-2,1.840929E-2,9.0581775E-2,7.9037264E-2,5.473404E-2,3.365248E-2,7.701713E-2],"split_indices":[2,2,2,2,4,4,4,4,5,6,5,9,8,0,8,6,6,4,0,5,0,0,0,0,4,9,7,6,6,7,3,5,7,4,3,6,8,4,2,8,7,8,6,8,4,0,7,3,0,0,6,9,9,0,7,0,0,4,6,4,9,6,1,0,0,0,0,0,0,0,0,0,0,0,0,0,0,0,0,0,0,0,0,0,0,0,0,0,0,0,0,0,0,0,0,0,0,0,0,0,0,0,0,0,0,0,0,0,0,0,0,0,0,0,0,0,0,0,0],"split_type":[0,0,0,0,0,0,0,0,0,0,0,0,0,0,0,0,0,0,0,0,0,0,0,0,0,0,0,0,0,0,0,0,0,0,0,0,0,0,0,0,0,0,0,0,0,0,0,0,0,0,0,0,0,0,0,0,0,0,0,0,0,0,0,0,0,0,0,0,0,0,0,0,0,0,0,0,0,0,0,0,0,0,0,0,0,0,0,0,0,0,0,0,0,0,0,0,0,0,0,0,0,0,0,0,0,0,0,0,0,0,0,0,0,0,0,0,0,0,0],"sum_hessian":[4.879128E3,2.3794072E3,2.4997207E3,1.0319628E3,1.3474445E3,3.280443E2,2.1716765E3,3.389425E2,6.930203E2,3.6465457E2,9.827899E2,2.5464948E2,7.3394844E1,1.4451704E2,2.0271594E3,4.5507496E1,2.93435E2,6.155271E2,7.7493225E1,1.7089265E2,1.937619E2,7.6465576E2,2.1813414E2,1.7584974E1,2.370645E2,6.430388E1,9.090967E0,2.536318E0,1.4198073E2,1.433919E3,5.932405E2,4.1031822E1,4.4756727E0,1.0525552E2,1.8817949E2,3.6034106E2,2.5518602E2,2.4382881E1,5.3110344E1,1.0054689E2,7.0345764E1,1.8830255E2,5.459359E0,5.1000003E2,2.5465575E2,1.696091E2,4.8525047E1,1.6373722E1,1.2112534E0,1.2864723E2,1.0841726E2,1.1155922E1,5.3147957E1,2.4256835E0,6.6652837E0,1.3840408E0,1.1522771E0,7.405626E1,6.792447E1,1.3453514E3,8.856746E1,4.1668997E2,1.7655049E2,2.942117E0,3.8089706E1,1.245117E0,3.2305558E0,6.775537E1,3.7500153E1,1.4175153E2,4.642795E1,2.2977126E2,1.3056981E2,2.296723E2,2.5513708E1,1.2719637E1,1.1663245E1,3.7345047E1,1.5765297E1,4.1189876E0,9.64279E1,4.5005565E0,6.584521E1,1.0253909E2,8.576345E1,1.2175369E0,4.2418222E0,2.1879214E2,2.912079E2,8.7050385E1,1.6760536E2,1.5171452E2,1.7894573E1,4.4131847E1,4.3931994E0,1.3502029E0,1.5023519E1,8.9595505E1,3.9051727E1,3.9171562E1,6.92457E1,9.273655E0,1.8822669E0,3.809756E1,1.5050395E1,2.6318305E0,4.0334535E0,3.399461E0,7.065679E1,4.781801E0,6.3142666E1,4.291834E2,9.16168E2,1.0311464E1,7.8256E1,3.0547647E2,1.1121352E2,1.0343798E2,7.311251E1],"tree_param":{"num_deleted":"0","num_feature":"11","num_nodes":"119","size_leaf_vector":"0"}},{"base_weights":[3.0056617E-1,8.770054E-2,5.0557184E-1,-7.544437E-2,2.1291256E-1,4.2088884E-1,5.663284E-1,-2.138231E-1,3.1833436E-2,4.703677E-1,1.6475137E-1,4.00339E-1,7.386842E-1,6.020129E-1,3.905835E-1,-1.4377859E-1,-4.757699E-1,-1.4892206E-2,4.2736208E-1,3.4438062E-1,7.425124E-1,1.4932516E-1,9.258308E-1,4.711661E-1,3.0579445E-1,2.3994964E-2,8.0507505E-1,8.920898E-1,5.800065E-1,3.1558317E-1,7.1623737E-1,-1.7737232E-1,6.269075E-1,-8.6095387E-1,-3.1697327E-1,8.092463E-2,-2.1088363E-1,1.1408832E0,2.8650707E-1,4.1491163E-1,-6.859915E-1,-2.658005E-1,8.235385E-1,2.1594498E-1,-3.218784E-2,1.3596566E0,5.1894444E-1,6.2442416E-1,3.8210076E-1,2.1097998E-1,5.761265E-1,5.555732E-1,-6.6160125E-1,1.2164016E0,6.371015E-1,-5.8474076E-1,9.4599164E-1,5.693261E-1,1.0029433E0,4.0937626E-1,1.1356098E-1,9.037916E-1,-1.554696E-2,1.0406663E-1,-2.4954101E-1,1.6741749E0,2.64756E-1,-1.1096965E0,2.2026755E-1,4.7552805E-2,-5.354862E-1,2.5681695E-1,-4.5439873E-2,-2.7670258E-1,7.182934E-1,9.058288E-2,1.3557355E0,1.3341881E0,1.5015902E-1,7.7495444E-1,2.6660433E-1,2.5542948E-1,-1.1914482E0,-9.0607095E-1,9.6830815E-1,8.843302E-1,-1.9549033E-2,1.72847E-1,5.2551144E-1,-2.6431835E-1,3.214858E-1,6.1922294E-1,1.5067117E0,7.658885E-1,-7.053693E-1,6.5798384E-1,-2.901114E-1,3.2616338E-1,6.7015624E-1,-1.0617823E-2,3.1253064E-1,-6.720293E-1,6.2108916E-1,-8.8800125E-2,1.0210042E0,1.2656701E0,3.073318E-1,7.880795E-1,6.875534E-2,3.8276568E-1,-1.2088915E0,-4.5446277E-1,9.7523904E-1,5.4625475E-1,7.760372E-1,8.3447605E-2,1.1399295E0,5.586836E-1,1.7290692E-1,-2.962165E-1,5.7078403E-1,1.1366667E-1,1.0083343E0,6.062754E-1,-5.198208E-1],"categories":[],"categories_nodes":[],"categories_segments":[],"categories_sizes":[],"default_left":[1,1,1,1,1,1,1,1,1,1,1,1,1,1,1,1,1,1,1,1,1,1,1,1,1,1,1,1,1,1,1,1,1,1,1,1,1,1,1,1,1,1,1,1,1,1,1,1,1,1,1,1,0,1,1,1,1,1,1,1,1,1,1,0,0,0,0,0,0,0,0,0,0,0,0,0,0,0,0,0,0,0,0,0,0,0,0,0,0,0,0,0,0,0,0,0,0,0,0,0,0,0,0,0,0,0,0,0,0,0,0,0,0,0,0,0,0,0,0,0,0,0,0,0,0],"id":8,"left_children":[1,3,5,7,9,11,13,15,17,19,21,23,25,27,29,31,33,35,37,39,41,43,45,47,49,51,53,55,57,59,61,63,65,67,69,71,73,75,77,79,81,83,85,87,89,91,93,95,97,99,101,103,-1,105,107,109,111,113,115,117,119,121,123,-1,-1,-1,-1,-1,-1,-1,-1,-1,-1,-1,-1,-1,-1,-1,-1,-1,-1,-1,-1,-1,-1,-1,-1,-1,-1,-1,-1,-1,-1,-1,-1,-1,-1,-1,-1,-1,-1,-1,-1,-1,-1,-1,-1,-1,-1,-1,-1,-1,-1,-1,-1,-1,-1,-1,-1,-1,-1,-1,-1,-1,-1],"loss_changes":[2.107449E2,4.8449085E1,1.242041E1,1.5301058E1,1.6558498E1,6.4420013E0,8.730896E0,8.188988E0,1.0748093E1,6.975113E0,1.3149607E1,6.359543E0,2.8977776E0,7.056885E0,5.736992E0,9.341738E0,5.508423E0,9.796918E0,5.8481913E0,1.089649E1,5.600548E0,1.3435497E1,3.2293549E0,7.31546E0,1.0613293E1,2.6476798E0,3.1095505E0,7.0655212E0,4.4236755E0,3.7475224E0,6.178585E0,6.9807644E0,5.2883377E0,7.508341E0,5.482527E0,7.8020964E0,1.0673674E1,2.0873241E0,7.3203115E0,7.1242504E0,4.935272E0,5.346168E0,3.1547508E0,1.0748966E1,2.4634195E1,1.7453766E-1,4.507032E0,6.385292E0,5.462612E0,7.0163603E0,6.4880714E0,1.3105718E0,0E0,2.9191208E-1,3.5514565E0,2.575522E0,3.6917496E0,4.7304993E0,3.1699524E0,4.7177963E0,1.2323101E1,2.8399448E0,3.4966774E0,0E0,0E0,0E0,0E0,0E0,0E0,0E0,0E0,0E0,0E0,0E0,0E0,0E0,0E0,0E0,0E0,0E0,0E0,0E0,0E0,0E0,0E0,0E0,0E0,0E0,0E0,0E0,0E0,0E0,0E0,0E0,0E0,0E0,0E0,0E0,0E0,0E0,0E0,0E0,0E0,0E0,0E0,0E0,0E0,0E0,0E0,0E0,0E0,0E0,0E0,0E0,0E0,0E0,0E0,0E0,0E0,0E0,0E0,0E0,0E0,0E0,0E0],"parents":[2147483647,0,0,1,1,2,2,3,3,4,4,5,5,6,6,7,7,8,8,9,9,10,10,11,11,12,12,13,13,14,14,15,15,16,16,17,17,18,18,19,19,20,20,21,21,22,22,23,23,24,24,25,25,26,26,27,27,28,28,29,29,30,30,31,31,32,32,33,33,34,34,35,35,36,36,37,37,38,38,39,39,40,40,41,41,42,42,43,43,44,44,45,45,46,46,47,47,48,48,49,49,50,50,51,51,53,53,54,54,55,55,56,56,57,57,58,58,59,59,60,60,61,61,62,62],"right_children":[2,4,6,8,10,12,14,16,18,20,22,24,26,28,30,32,34,36,38,40,42,44,46,48,50,52,54,56,58,60,62,64,66,68,70,72,74,76,78,80,82,84,86,88,90,92,94,96,98,100,102,104,-1,106,108,110,112,114,116,118,120,122,124,-1,-1,-1,-1,-1,-1,-1,-1,-1,-1,-1,-1,-1,-1,-1,-1,-1,-1,-1,-1,-1,-1,-1,-1,-1,-1,-1,-1,-1,-1,-1,-1,-1,-1,-1,-1,-1,-1,-1,-1,-1,-1,-1,-1,-1,-1,-1,-1,-1,-1,-1,-1,-1,-1,-1,-1,-1,-1,-1,-1,-1,-1],"split_conditions":[-1.2247183E-1,-1.005369E0,7.604252E-1,-6.0645866E-1,-3.8913423E-1,1.4907272E0,-1.8072456E-1,-2.890253E-1,1.2895575E0,-4.1677088E-1,1.5853951E0,1.9665681E-1,-1.2094759E0,-4.0538394E-1,1.3490233E0,-3.2606417E-1,-5.0113842E-2,-2.4348848E-1,-6.931876E-1,8.3870065E-1,-7.315164E-1,7.231873E-1,4.3200675E-1,-3.6084765E-1,1.817128E-1,-1.2253965E0,-3.375767E-1,-1.2881415E0,-2.591343E-1,1.3147373E0,-9.15234E-2,-3.7709737E-1,4.8873946E-2,1.096277E0,1.0116668E0,-3.7023664E-1,1.3095045E0,-3.4640342E-1,-3.8943514E-1,-7.110699E-1,-3.7023968E-1,2.2946602E-1,1.7546101E0,1.1159995E0,-4.7817547E-3,-3.5182E-1,1.6007383E0,3.2491605E0,8.60126E-1,1.7182718E-1,2.4680257E-1,1.5277927E-1,-6.616013E-2,1.651319E0,1.5893397E0,-4.1260606E-1,-1.3484596E0,1.380281E0,-1.2171733E0,2.181315E0,3.1386938E0,-1.226156E0,-2.8999135E-2,1.0406664E-2,-2.4954101E-2,1.674175E-1,2.6475599E-2,-1.10969655E-1,2.2026755E-2,4.7552804E-3,-5.3548623E-2,2.5681695E-2,-4.5439876E-3,-2.7670259E-2,7.182934E-2,9.058288E-3,1.3557355E-1,1.3341881E-1,1.5015902E-2,7.749545E-2,2.6660433E-2,2.5542948E-2,-1.1914482E-1,-9.06071E-2,9.6830815E-2,8.843302E-2,-1.9549034E-3,1.72847E-2,5.2551147E-2,-2.6431834E-2,3.214858E-2,6.1922293E-2,1.5067117E-1,7.6588854E-2,-7.0536934E-2,6.579839E-2,-2.901114E-2,3.261634E-2,6.7015626E-2,-1.0617824E-3,3.1253066E-2,-6.720293E-2,6.2108915E-2,-8.880013E-3,1.02100424E-1,1.26567E-1,3.0733181E-2,7.880795E-2,6.8755345E-3,3.8276568E-2,-1.2088915E-1,-4.5446277E-2,9.7523905E-2,5.4625478E-2,7.760372E-2,8.344761E-3,1.1399295E-1,5.5868357E-2,1.7290693E-2,-2.962165E-2,5.7078402E-2,1.1366667E-2,1.0083343E-1,6.062754E-2,-5.1982082E-2],"split_indices":[2,2,2,5,4,8,6,6,8,2,8,0,5,4,2,6,6,4,3,7,7,0,1,4,4,5,3,3,6,5,4,4,1,8,6,6,1,4,4,2,6,9,6,8,5,4,0,6,7,2,0,0,0,5,8,4,0,8,8,6,6,5,0,0,0,0,0,0,0,0,0,0,0,0,0,0,0,0,0,0,0,0,0,0,0,0,0,0,0,0,0,0,0,0,0,0,0,0,0,0,0,0,0,0,0,0,0,0,0,0,0,0,0,0,0,0,0,0,0,0,0,0,0,0,0],"split_type":[0,0,0,0,0,0,0,0,0,0,0,0,0,0,0,0,0,0,0,0,0,0,0,0,0,0,0,0,0,0,0,0,0,0,0,0,0,0,0,0,0,0,0,0,0,0,0,0,0,0,0,0,0,0,0,0,0,0,0,0,0,0,0,0,0,0,0,0,0,0,0,0,0,0,0,0,0,0,0,0,0,0,0,0,0,0,0,0,0,0,0,0,0,0,0,0,0,0,0,0,0,0,0,0,0,0,0,0,0,0,0,0,0,0,0,0,0,0,0,0,0,0,0,0,0],"sum_hessian":[4.8293325E3,2.3699482E3,2.4593845E3,1.0292653E3,1.340683E3,1.0307059E3,1.4286786E3,4.4904474E2,5.802205E2,2.0989284E2,1.1307902E3,9.702271E2,6.0478775E1,1.1855339E3,2.4314459E2,3.5552606E2,9.351869E1,5.1977893E2,6.044156E1,1.450217E2,6.487114E1,1.109498E3,2.1292046E1,5.524108E2,4.1781628E2,5.2563434E0,5.522243E1,8.0809456E1,1.1047245E3,1.992297E2,4.391488E1,3.4141388E2,1.4112171E1,2.6008827E1,6.7509865E1,3.49501E2,1.7027792E2,8.794099E0,5.164746E1,1.3628972E2,8.731984E0,4.6555557E0,6.021558E1,8.1147626E2,2.9802176E2,9.171596E0,1.2120449E1,2.0082785E2,3.5158298E2,3.1064368E2,1.0717261E2,3.067557E0,2.1887865E0,1.4202452E1,4.101998E1,2.4987664E0,7.8310684E1,1.0798026E3,2.4921902E1,1.353597E2,6.3870007E1,3.4768707E1,9.1461735E0,6.958982E1,2.7182407E2,2.695239E0,1.1416932E1,2.1122997E1,4.88583E0,2.5594755E1,4.1915108E1,1.4568428E2,2.0381674E2,1.596698E2,1.0608119E1,1.7348638E0,7.0592346E0,4.9358516E0,4.671161E1,3.8528786E1,9.776093E1,3.2232625E0,5.5087214E0,3.2402728E0,1.415283E0,5.6120064E1,4.095516E0,7.1367633E2,9.779994E1,1.8008032E2,1.1794145E2,2.3831384E0,6.7884574E0,1.0397674E1,1.7227758E0,1.9398976E2,6.8381004E0,2.9619687E2,5.538609E1,9.790236E1,2.1274132E2,3.24154E0,1.0393107E2,1.6258423E0,1.4417148E0,1.3100197E1,1.1022545E0,3.2104877E1,8.915104E0,1.13152E0,1.3672463E0,1.304583E0,7.70061E1,9.7466156E2,1.051411E2,3.4400883E0,2.1481813E1,8.213614E1,5.322356E1,3.3868317E1,3.0001692E1,4.306653E0,3.0462053E1,4.0051413E0,5.1410317E0],"tree_param":{"num_deleted":"0","num_feature":"11","num_nodes":"125","size_leaf_vector":"0"}},{"base_weights":[2.738568E-1,7.960388E-2,4.633317E-1,-6.770698E-2,1.9289093E-1,5.6158257E-1,4.1630745E-1,-2.3533115E-1,1.4266186E-2,2.3317459E-1,-7.733434E-2,7.825607E-1,5.302548E-1,3.923788E-1,7.168955E-1,-1.0572914E0,-2.0169331E-1,-3.0719252E-2,3.6806947E-1,3.5362846E-1,1.5724999E-1,-4.473042E-1,8.796922E-2,1.7918345E-1,8.4602857E-1,4.5225355E-1,6.2462944E-1,2.488941E-1,4.3185982E-1,2.7649137E-1,8.6525786E-1,4.2739788E-1,-1.2452861E0,-1.5896904E-1,-8.047576E-1,-8.796195E-2,2.3550908E-1,-6.152665E-2,5.640007E-1,2.7848554E-1,6.3096136E-1,3.389442E-1,7.410378E-2,-1.4903595E-1,-8.861669E-1,4.7241786E-1,-4.516691E-2,4.310791E-1,-8.793047E-1,8.9264905E-1,-1.4056815E-1,7.1079093E-1,3.9607275E-1,6.380841E-1,-9.404692E-1,5.996133E-1,1.2902239E-1,5.934489E-1,3.5492492E-1,7.716234E-1,-1.9009717E-1,-7.295881E-1,8.988152E-1,-1.3691875E0,-2.150759E-1,8.656217E-2,-3.101164E-1,-1.3299671E0,-4.4473368E-1,1.4201022E-2,-2.3524493E-1,3.554913E-1,-1.8239808E-1,-6.328706E-1,5.6602097E-1,3.506886E-1,1.0222483E0,8.4935546E-1,2.2899963E-1,1.048006E0,3.9700684E-1,4.728223E-1,8.292473E-2,5.03932E-2,1.0097843E0,8.327564E-1,-3.608861E-1,-9.780711E-1,3.514592E-1,3.1487036E-1,1.1618963E0,3.8204616E-1,-2.2246525E-1,-2.1069732E-1,8.43666E-1,9.8211855E-1,2.25796E-1,-1.2183768E0,4.94991E-1,-9.926898E-1,7.6713777E-1,5.2777964E-1,2.2443202E-1,6.4927447E-1,-8.0878544E-1,6.503763E-1,-1.1718978E-1,-1.9655916E-1,1.9909301E-1,6.8556076E-1,4.0781423E-1,2.344983E-1,5.032419E-1,-6.272885E-1,9.734835E-1,-8.545043E-1,2.3129173E-1,9.4375294E-1,-1.2728088E-1],"categories":[],"categories_nodes":[],"categories_segments":[],"categories_sizes":[],"default_left":[1,1,1,1,1,1,1,1,1,1,1,1,1,1,1,1,1,1,1,1,1,1,1,1,1,1,1,1,1,1,1,0,1,1,1,1,1,1,1,1,1,1,1,1,1,1,1,1,0,1,1,1,1,1,0,1,1,1,1,1,1,0,1,0,0,0,0,0,0,0,0,0,0,0,0,0,0,0,0,0,0,0,0,0,0,0,0,0,0,0,0,0,0,0,0,0,0,0,0,0,0,0,0,0,0,0,0,0,0,0,0,0,0,0,0,0,0,0,0],"id":9,"left_children":[1,3,5,7,9,11,13,15,17,19,21,23,25,27,29,31,33,35,37,39,41,43,45,47,49,51,53,55,57,59,61,-1,63,65,67,69,71,73,75,77,79,81,83,85,87,89,91,93,-1,95,97,99,101,103,-1,105,107,109,111,113,115,-1,117,-1,-1,-1,-1,-1,-1,-1,-1,-1,-1,-1,-1,-1,-1,-1,-1,-1,-1,-1,-1,-1,-1,-1,-1,-1,-1,-1,-1,-1,-1,-1,-1,-1,-1,-1,-1,-1,-1,-1,-1,-1,-1,-1,-1,-1,-1,-1,-1,-1,-1,-1,-1,-1,-1,-1,-1],"loss_changes":[1.7598837E2,3.944256E1,1.0950867E1,1.4126677E1,1.455954E1,4.9898376E0,1.1522491E1,9.121716E0,1.1012802E1,1.0578545E1,1.0684108E1,3.480259E0,4.773987E0,8.516174E0,7.5883293E0,4.1713085E0,8.260957E0,9.380468E0,6.6043158E0,9.176262E0,1.0776901E1,6.9255E0,6.2217197E0,3.12402E0,4.060108E0,5.233467E0,7.0901566E0,1.3831829E1,1.4613647E1,7.460285E0,5.426483E0,0E0,1.2153168E0,1.13566675E1,3.4349737E0,7.6202726E0,5.5281615E0,9.447016E0,4.890814E0,9.830875E0,8.841255E0,7.645376E0,1.0860489E1,7.227125E0,2.8022118E0,3.0284152E0,6.9695096E0,2.5574408E0,0E0,4.6598587E0,3.8389575E0,7.146614E0,6.983822E0,5.482292E0,0E0,3.1327667E0,5.693396E0,6.271637E0,1.4355263E1,5.003601E0,4.9854326E0,0E0,4.1664124E0,0E0,0E0,0E0,0E0,0E0,0E0,0E0,0E0,0E0,0E0,0E0,0E0,0E0,0E0,0E0,0E0,0E0,0E0,0E0,0E0,0E0,0E0,0E0,0E0,0E0,0E0,0E0,0E0,0E0,0E0,0E0,0E0,0E0,0E0,0E0,0E0,0E0,0E0,0E0,0E0,0E0,0E0,0E0,0E0,0E0,0E0,0E0,0E0,0E0,0E0,0E0,0E0,0E0,0E0,0E0,0E0],"parents":[2147483647,0,0,1,1,2,2,3,3,4,4,5,5,6,6,7,7,8,8,9,9,10,10,11,11,12,12,13,13,14,14,15,15,16,16,17,17,18,18,19,19,20,20,21,21,22,22,23,23,24,24,25,25,26,26,27,27,28,28,29,29,30,30,32,32,33,33,34,34,35,35,36,36,37,37,38,38,39,39,40,40,41,41,42,42,43,43,44,44,45,45,46,46,47,47,49,49,50,50,51,51,52,52,53,53,55,55,56,56,57,57,58,58,59,59,60,60,62,62],"right_children":[2,4,6,8,10,12,14,16,18,20,22,24,26,28,30,32,34,36,38,40,42,44,46,48,50,52,54,56,58,60,62,-1,64,66,68,70,72,74,76,78,80,82,84,86,88,90,92,94,-1,96,98,100,102,104,-1,106,108,110,112,114,116,-1,118,-1,-1,-1,-1,-1,-1,-1,-1,-1,-1,-1,-1,-1,-1,-1,-1,-1,-1,-1,-1,-1,-1,-1,-1,-1,-1,-1,-1,-1,-1,-1,-1,-1,-1,-1,-1,-1,-1,-1,-1,-1,-1,-1,-1,-1,-1,-1,-1,-1,-1,-1,-1,-1,-1,-1,-1],"split_conditions":[-1.2247183E-1,-1.005369E0,-3.6084765E-1,-1.593967E0,1.5162072E-1,-4.1140234E-1,1.4749491E0,-8.608725E-1,1.3415447E0,-3.702289E-1,-2.369647E-1,-4.2825395E-1,1.8236654E-2,4.661262E-1,-3.2172793E-1,-9.2893404E-1,1.463636E0,1.0844433E0,-1.0068415E0,1.1081104E0,-5.523962E-1,4.097763E-1,1.5748549E-1,6.4796865E-1,1.1919127E0,-1.2687888E0,3.7954116E0,-7.153318E-1,-8.119819E-1,-3.4098685E-1,-9.8219407E-1,4.273979E-2,7.4913156E-1,-3.702399E-1,-1.7307258E-1,-2.7598792E-1,5.146408E-1,-3.3195925E-1,-1.2996678E0,-1.5557522E0,2.4456006E-1,1.745953E-1,1.5814507E0,-1.3304358E0,1.3749503E0,1.4614167E0,-3.6309683E-1,2.341967E-3,-8.793047E-2,-2.7841184E-1,-7.0241594E-1,-1.2060505E0,5.2540874E-1,1.7637119E0,-9.404692E-2,3.5394065E0,-1.2162224E0,4.9753138E-1,-2.3205349E-1,-9.798343E-1,-3.3436662E-1,-7.295881E-2,2.136671E0,-1.3691875E-1,-2.150759E-2,8.656218E-3,-3.1011641E-2,-1.3299672E-1,-4.447337E-2,1.4201022E-3,-2.3524493E-2,3.554913E-2,-1.823981E-2,-6.3287064E-2,5.6602098E-2,3.5068862E-2,1.0222483E-1,8.4935546E-2,2.2899963E-2,1.04800604E-1,3.9700683E-2,4.728223E-2,8.292473E-3,5.0393203E-3,1.00978434E-1,8.327564E-2,-3.6088612E-2,-9.780711E-2,3.514592E-2,3.1487036E-2,1.1618964E-1,3.8204618E-2,-2.2246525E-2,-2.1069733E-2,8.4366605E-2,9.8211855E-2,2.2579601E-2,-1.21837676E-1,4.9499102E-2,-9.926898E-2,7.671378E-2,5.2777965E-2,2.2443203E-2,6.492745E-2,-8.087855E-2,6.503763E-2,-1.1718978E-2,-1.9655917E-2,1.9909302E-2,6.855608E-2,4.0781423E-2,2.344983E-2,5.032419E-2,-6.272885E-2,9.7348355E-2,-8.545043E-2,2.3129173E-2,9.43753E-2,-1.2728088E-2],"split_indices":[2,2,4,2,4,4,8,7,5,6,8,4,9,2,4,9,4,8,0,8,9,0,8,0,3,9,7,1,5,4,7,0,9,6,5,4,7,4,2,1,1,3,8,9,10,9,1,0,0,6,8,5,5,0,0,6,5,0,4,9,4,0,0,0,0,0,0,0,0,0,0,0,0,0,0,0,0,0,0,0,0,0,0,0,0,0,0,0,0,0,0,0,0,0,0,0,0,0,0,0,0,0,0,0,0,0,0,0,0,0,0,0,0,0,0,0,0,0,0],"split_type":[0,0,0,0,0,0,0,0,0,0,0,0,0,0,0,0,0,0,0,0,0,0,0,0,0,0,0,0,0,0,0,0,0,0,0,0,0,0,0,0,0,0,0,0,0,0,0,0,0,0,0,0,0,0,0,0,0,0,0,0,0,0,0,0,0,0,0,0,0,0,0,0,0,0,0,0,0,0,0,0,0,0,0,0,0,0,0,0,0,0,0,0,0,0,0,0,0,0,0,0,0,0,0,0,0,0,0,0,0,0,0,0,0,0,0,0,0,0,0],"sum_hessian":[4.78151E3,2.3616873E3,2.4198223E3,1.0268469E3,1.3348405E3,7.797327E2,1.6400896E3,3.3662433E2,6.9022253E2,1.1617852E3,1.730553E2,9.3838776E1,6.85894E2,1.521291E3,1.1879859E2,1.203797E1,3.2458636E2,6.1317206E2,7.705053E1,4.477598E2,7.140253E2,5.2916237E1,1.2013906E2,9.29511E0,8.454367E1,3.7869363E2,3.0720035E2,3.298459E2,1.1914451E3,3.065747E1,8.814112E1,1.2098346E0,1.0828135E1,3.0429227E2,2.0294073E1,5.0521384E2,1.07958206E2,2.4349075E1,5.2701454E1,3.5388055E2,9.387923E1,2.232012E2,4.9082413E2,3.230208E1,2.061416E1,3.0247349E1,8.989171E1,7.987105E0,1.308005E0,8.081985E1,3.7238243E0,6.552118E1,3.1317245E2,3.051692E2,2.0311453E0,8.300084E1,2.4684503E2,3.8213013E2,8.0931494E2,1.4556608E1,1.6100863E1,1.3889363E0,8.675219E1,9.371951E0,1.4561833E0,1.1610801E2,1.8818427E2,7.157895E0,1.3136178E1,2.9883218E2,2.0638162E2,8.3992966E1,2.3965244E1,1.2740835E1,1.1608239E1,3.716609E1,1.5535364E1,2.693975E1,3.269408E2,3.248762E1,6.139161E1,1.4600513E2,7.7196075E1,4.7972162E2,1.1102509E1,5.212862E0,2.7089214E1,1.9384422E1,1.2297368E0,2.5807055E1,4.4402947E0,2.6025816E1,6.3865894E1,3.3169446E0,4.670161E0,7.084239E1,9.977454E0,1.0411618E0,2.6826625E0,1.5658168E0,6.395536E1,1.7602579E2,1.3714665E2,3.033741E2,1.7950901E0,7.7598114E1,5.402724E0,4.3396946E1,2.0344809E2,2.5360051E2,1.2852962E2,4.480775E2,3.6123746E2,1.5698489E0,1.2986759E1,5.8497257E0,1.0251137E1,8.318918E1,3.5630097E0],"tree_param":{"num_deleted":"0","num_feature":"11","num_nodes":"119","size_leaf_vector":"0"}},{"base_weights":[2.4928087E-1,7.207901E-2,4.2434037E-1,-6.1298974E-2,1.7482671E-1,3.4667152E-1,4.8066705E-1,-1.48236E-1,7.316749E-2,4.009889E-1,1.2933639E-1,3.2857317E-1,6.370149E-1,5.141205E-1,3.1798562E-1,-1.3196439E-1,-1.0159413E0,5.2292734E-2,1.1331583E0,5.0246894E-1,1.4766298E-1,1.1552446E-1,8.3560866E-1,3.926385E-1,2.4386714E-1,1.014799E0,4.9404413E-1,6.001935E-1,4.3810478E-1,2.4736074E-1,6.309856E-1,-1.5893587E-1,2.6569527E-1,-1.3624774E0,-7.5416504E-3,6.569328E-1,2.3846697E-2,2.2407417E-1,1.3053637E0,-3.330786E-2,5.7221186E-1,-1.1012429E0,2.0757256E-1,5.635002E-1,9.287673E-2,2.84293E-1,1.0882915E0,4.0325448E-1,-9.161716E-1,1.5608336E-1,4.9765792E-1,-1.5579025E-1,1.1652036E0,6.327984E-1,1.9405663E-2,7.067731E-1,4.3359306E-1,1.62327E-1,4.9085274E-1,6.923247E-1,2.0256162E-1,8.153736E-1,-6.31606E-2,-5.1391758E-2,-2.6766706E-1,-7.5418174E-1,4.090991E-1,-4.35586E-1,-1.4540561E0,-9.0068865E-1,7.187285E-1,8.70991E-1,-5.889763E-1,-1.1913217E0,4.7118362E-2,5.2327126E-1,-4.2911562E-1,7.5009316E-1,3.914688E-1,5.098488E-1,-4.8505846E-2,-1.0104482E0,6.523447E-1,-3.0371843E-2,1.7469378E-1,9.3244046E-1,-2.9423514E-1,-2.6681484E-3,1.1892216E0,3.5429332E-1,6.876655E-1,-1.8358204E0,3.305022E-1,3.8289583E-1,6.93092E-2,1.012382E0,3.8924468E-1,1.2259207E0,2.2188796E-1,7.490024E-1,-2.273139E-1,-4.489433E-1,9.071945E-1,-1.0904231E0,7.1627706E-1,5.027281E-1,-1.2846769E-2,-4.5676067E-2,3.3445427E-1,6.9216835E-1,4.17078E-1,8.490128E-1,-5.071898E-1,-2.0697957E-1,2.8831136E-1,5.74578E-2,9.20043E-1,5.288119E-1,-5.188831E-1],"categories":[],"categories_nodes":[],"categories_segments":[],"categories_sizes":[],"default_left":[1,1,1,1,1,1,1,1,1,1,1,1,1,1,1,1,1,1,1,1,1,1,1,1,1,1,1,1,1,1,1,1,1,1,1,1,1,0,0,1,1,0,1,1,1,1,1,1,1,1,1,0,1,1,1,1,1,1,1,1,1,1,1,0,0,0,0,0,0,0,0,0,0,0,0,0,0,0,0,0,0,0,0,0,0,0,0,0,0,0,0,0,0,0,0,0,0,0,0,0,0,0,0,0,0,0,0,0,0,0,0,0,0,0,0,0,0,0,0],"id":10,"left_children":[1,3,5,7,9,11,13,15,17,19,21,23,25,27,29,31,33,35,37,39,41,43,45,47,49,51,53,55,57,59,61,63,65,67,69,71,73,-1,-1,75,77,-1,79,81,83,85,87,89,91,93,95,-1,97,99,101,103,105,107,109,111,113,115,117,-1,-1,-1,-1,-1,-1,-1,-1,-1,-1,-1,-1,-1,-1,-1,-1,-1,-1,-1,-1,-1,-1,-1,-1,-1,-1,-1,-1,-1,-1,-1,-1,-1,-1,-1,-1,-1,-1,-1,-1,-1,-1,-1,-1,-1,-1,-1,-1,-1,-1,-1,-1,-1,-1,-1,-1],"loss_changes":[1.4688486E2,3.228174E1,1.0255127E1,1.1998048E1,1.363554E1,5.0715866E0,7.337219E0,8.6634865E0,8.864843E0,5.640831E0,1.0722616E1,5.049179E0,2.6261368E0,7.205963E0,5.0983505E0,6.6145964E0,3.9455786E0,6.805203E0,9.193125E-1,5.9345512E0,5.0919943E0,1.0996024E1,2.6318178E0,7.8468933E0,9.07683E0,2.8133821E0,2.8825216E0,9.151382E0,8.792122E0,3.7584915E0,5.569872E0,6.7039213E0,6.055831E0,8.1311226E-2,3.1776898E0,5.255185E0,1.07962055E1,0E0,0E0,4.4496145E0,4.2116737E0,0E0,4.890983E0,7.959656E0,1.0470003E1,3.2700238E0,1.5583725E0,7.199745E0,5.9215384E0,6.010998E0,5.4733505E0,0E0,4.934368E-1,3.566558E0,4.970476E0,6.3023224E0,6.5002785E0,3.574699E0,7.3076324E0,3.7153091E0,6.3495083E0,2.6553059E0,2.9659727E0,0E0,0E0,0E0,0E0,0E0,0E0,0E0,0E0,0E0,0E0,0E0,0E0,0E0,0E0,0E0,0E0,0E0,0E0,0E0,0E0,0E0,0E0,0E0,0E0,0E0,0E0,0E0,0E0,0E0,0E0,0E0,0E0,0E0,0E0,0E0,0E0,0E0,0E0,0E0,0E0,0E0,0E0,0E0,0E0,0E0,0E0,0E0,0E0,0E0,0E0,0E0,0E0,0E0,0E0,0E0,0E0],"parents":[2147483647,0,0,1,1,2,2,3,3,4,4,5,5,6,6,7,7,8,8,9,9,10,10,11,11,12,12,13,13,14,14,15,15,16,16,17,17,18,18,19,19,20,20,21,21,22,22,23,23,24,24,25,25,26,26,27,27,28,28,29,29,30,30,31,31,32,32,33,33,34,34,35,35,36,36,39,39,40,40,42,42,43,43,44,44,45,45,46,46,47,47,48,48,49,49,50,50,52,52,53,53,54,54,55,55,56,56,57,57,58,58,59,59,60,60,61,61,62,62],"right_children":[2,4,6,8,10,12,14,16,18,20,22,24,26,28,30,32,34,36,38,40,42,44,46,48,50,52,54,56,58,60,62,64,66,68,70,72,74,-1,-1,76,78,-1,80,82,84,86,88,90,92,94,96,-1,98,100,102,104,106,108,110,112,114,116,118,-1,-1,-1,-1,-1,-1,-1,-1,-1,-1,-1,-1,-1,-1,-1,-1,-1,-1,-1,-1,-1,-1,-1,-1,-1,-1,-1,-1,-1,-1,-1,-1,-1,-1,-1,-1,-1,-1,-1,-1,-1,-1,-1,-1,-1,-1,-1,-1,-1,-1,-1,-1,-1,-1,-1,-1],"split_conditions":[-1.2247183E-1,-1.005369E0,7.604252E-1,9.649059E-2,-3.8732868E-1,1.4946716E0,-1.8072456E-1,2.0050385E0,1.2393421E0,-3.6652967E-1,1.5853951E0,1.9665681E-1,-3.375767E-1,-3.301537E-1,1.3490233E0,1.4749491E0,1.5048344E-1,-1.9625733E0,-8.68863E-1,-7.1276915E-1,-3.6581057E-1,-1.8906606E0,-3.3496845E-1,1.4493098E0,1.817128E-1,-1.1461806E0,1.5893397E0,5.030693E-1,-7.4580544E-1,-1.8894484E0,-9.15234E-2,-3.701584E-1,-7.047113E-1,-5.6084275E-1,-1.0292706E0,-1.4409697E0,-1.8647301E0,2.2407418E-2,1.3053636E-1,1.7744985E-1,-4.2540044E-1,-1.1012429E-1,-4.5061243E-1,-4.1931734E0,-8.312913E-2,-4.307568E-1,-7.6320636E-1,-1.6462693E-2,9.254215E-1,-4.393114E-1,-1.0041015E0,-1.5579025E-2,7.409848E-1,1.3256993E0,1.6208956E0,-1.2422919E0,7.047916E-1,-3.7022698E-1,-3.6173055E-1,6.392668E-1,-1.3518267E0,-1.226156E0,-2.8999135E-2,-5.139176E-3,-2.6766706E-2,-7.5418174E-2,4.0909912E-2,-4.35586E-2,-1.4540562E-1,-9.006887E-2,7.187285E-2,8.70991E-2,-5.8897633E-2,-1.19132176E-1,4.711836E-3,5.2327126E-2,-4.2911563E-2,7.5009316E-2,3.914688E-2,5.0984878E-2,-4.8505845E-3,-1.01044826E-1,6.5234475E-2,-3.0371842E-3,1.7469378E-2,9.3244046E-2,-2.9423514E-2,-2.6681484E-4,1.1892217E-1,3.5429332E-2,6.876656E-2,-1.8358205E-1,3.305022E-2,3.8289584E-2,6.93092E-3,1.01238206E-1,3.8924467E-2,1.2259207E-1,2.2188796E-2,7.490024E-2,-2.2731392E-2,-4.489433E-2,9.0719454E-2,-1.0904231E-1,7.162771E-2,5.027281E-2,-1.284677E-3,-4.567607E-3,3.344543E-2,6.921684E-2,4.17078E-2,8.490128E-2,-5.071898E-2,-2.0697957E-2,2.8831137E-2,5.74578E-3,9.20043E-2,5.288119E-2,-5.1888313E-2],"split_indices":[2,2,2,5,4,8,6,0,3,6,8,0,3,4,2,8,9,1,9,7,6,0,4,8,4,5,8,5,8,1,4,6,9,1,5,3,1,0,0,3,7,0,9,10,8,7,9,0,9,1,5,0,1,9,8,5,7,6,3,9,1,5,0,0,0,0,0,0,0,0,0,0,0,0,0,0,0,0,0,0,0,0,0,0,0,0,0,0,0,0,0,0,0,0,0,0,0,0,0,0,0,0,0,0,0,0,0,0,0,0,0,0,0,0,0,0,0,0,0],"split_type":[0,0,0,0,0,0,0,0,0,0,0,0,0,0,0,0,0,0,0,0,0,0,0,0,0,0,0,0,0,0,0,0,0,0,0,0,0,0,0,0,0,0,0,0,0,0,0,0,0,0,0,0,0,0,0,0,0,0,0,0,0,0,0,0,0,0,0,0,0,0,0,0,0,0,0,0,0,0,0,0,0,0,0,0,0,0,0,0,0,0,0,0,0,0,0,0,0,0,0,0,0,0,0,0,0,0,0,0,0,0,0,0,0,0,0,0,0,0,0],"sum_hessian":[4.73502E3,2.353813E3,2.381207E3,1.0244135E3,1.3293995E3,1.00397766E3,1.3772294E3,6.221017E2,4.023118E2,2.2130962E2,1.10809E3,9.470741E2,5.690358E1,1.1405325E3,2.3669685E2,6.117813E2,1.0320331E1,3.95571E2,6.740778E0,1.5730943E2,6.4000175E1,1.0879769E3,2.0113008E1,5.3716614E2,4.0990796E2,1.3948453E1,4.2955128E1,5.316485E2,6.0888403E2,1.9458194E2,4.2114914E1,5.7348474E2,3.82966E1,7.419495E0,2.9008353E0,1.6781195E1,3.7878983E2,1.4400187E0,5.3007593E0,1.817886E1,1.3913058E2,2.133907E0,6.186627E1,5.1207302E1,1.0367697E3,6.989052E0,1.3123956E1,5.3353046E2,3.6356616E0,3.057626E2,1.0414534E2,1.5840545E0,1.2364399E1,3.2980495E1,9.974632E0,3.2225162E2,2.0939687E2,9.841686E1,5.1046716E2,1.6476484E1,1.7810545E2,3.3137787E1,8.977126E0,2.8905658E2,2.8442816E2,4.195978E0,3.410062E1,1.1847502E0,6.234745E0,1.1932513E0,1.707584E0,1.457756E1,2.203635E0,6.1747184E0,3.726151E2,7.421218E0,1.0757643E1,6.853282E1,7.059776E1,2.7919254E1,3.3947014E1,2.181801E0,4.90255E1,4.1390106E2,6.228686E2,3.0076828E0,3.9813693E0,1.1937891E0,1.1930166E1,4.5708868E2,7.6441795E1,1.8202908E0,1.8153707E0,8.3664825E1,2.2209778E2,1.6668503E1,8.747684E1,1.1335213E1,1.0291858E0,2.9168867E1,3.8116295E0,6.853443E0,3.1211896E0,1.0968823E0,3.2115472E2,1.8120901E2,2.8187849E1,4.4896904E1,5.3519955E1,1.34651E2,3.758162E2,1.4831327E1,1.6451578E0,3.0590643E1,1.4751482E2,4.209021E0,2.8928766E1,3.8350751E0,5.1420503E0],"tree_param":{"num_deleted":"0","num_feature":"11","num_nodes":"119","size_leaf_vector":"0"}},{"base_weights":[2.2680844E-1,8.53728E-2,4.1234857E-1,-5.548692E-2,1.731605E-1,6.8211E-1,3.937589E-1,-2.0759524E-1,1.8713038E-2,3.1262088E-1,1.2083369E-1,-3.278148E-1,7.042939E-1,3.5229033E-1,4.944089E-1,1.9336534E-1,-2.7069283E-1,-2.6405653E-1,6.366059E-2,6.2435657E-1,2.5434104E-1,1.06144935E-1,6.946374E-1,-7.4335945E-1,2.9822728E-1,8.50259E-1,5.381436E-1,3.3173376E-1,6.6235155E-1,6.096204E-1,4.1388145E-1,3.5010657E-1,-1.0596695E0,-9.5461E-1,-2.3907712E-1,-6.677879E-1,-9.426108E-2,1.1278267E-1,-1.5230787E-1,3.0182916E-1,9.3979555E-1,4.263043E-1,1.687155E-1,1.5926038E-1,-8.1380025E-2,1.0523502E0,1.8436718E-1,-8.145454E-2,8.991143E-1,8.243078E-1,3.5236594E-1,3.366206E-1,-1.1847003E0,5.025629E-1,1.0804131E0,9.589072E-1,5.2627456E-1,8.2190144E-1,3.4017754E-1,2.3381396E-1,1.2216716E0,-1.17944896E-1,-1.3111013E0,4.1040066E-1,-1.1380305E0,-4.435073E-1,-1.3116919E-1,-5.1747378E-2,-1.22271E0,6.0246664E-1,-3.2506287E-1,6.595317E-2,4.3036324E-1,6.479891E-1,-2.7914798E-1,1.0207949E0,5.4163076E-2,-3.5441455E-1,1.044123E0,1.6693014E-1,6.3064873E-1,-1.0003893E0,1.8882097E-1,4.195358E-2,2.4365766E-1,-4.6528673E-1,1.41019905E-2,3.6981627E-1,1.2079129E0,4.4773874E-1,-6.421079E-1,-6.1067384E-1,7.5649893E-1,-4.4935632E-2,9.43525E-1,9.089714E-1,-1.999891E-2,-8.1587017E-1,5.137909E-1,4.51137E-1,2.8341374E-1,-2.0372592E-1,-1.4498973E0,-2.7035612E-1,6.196489E-1,2.8019646E-1,1.1861377E0,-1.4256003E-1,1.0297011E0,6.6532344E-1,3.422649E-1,8.884743E-1,-1.0849156E0,3.907229E-1,-2.3393579E-1],"categories":[],"categories_nodes":[],"categories_segments":[],"categories_sizes":[],"default_left":[1,1,1,1,1,1,1,1,1,1,1,1,1,1,1,1,1,1,1,1,1,1,1,0,0,1,1,1,1,1,1,1,1,1,1,1,1,1,1,1,1,1,1,1,1,1,1,1,1,1,1,1,1,1,1,1,1,1,1,0,0,0,0,0,0,0,0,0,0,0,0,0,0,0,0,0,0,0,0,0,0,0,0,0,0,0,0,0,0,0,0,0,0,0,0,0,0,0,0,0,0,0,0,0,0,0,0,0,0,0,0,0,0,0,0],"id":11,"left_children":[1,3,5,7,9,11,13,15,17,19,21,23,25,27,29,31,33,35,37,39,41,43,45,-1,-1,47,49,51,53,55,57,59,61,63,65,67,69,71,73,75,77,79,81,83,85,87,89,91,93,95,97,99,101,103,105,107,109,111,113,-1,-1,-1,-1,-1,-1,-1,-1,-1,-1,-1,-1,-1,-1,-1,-1,-1,-1,-1,-1,-1,-1,-1,-1,-1,-1,-1,-1,-1,-1,-1,-1,-1,-1,-1,-1,-1,-1,-1,-1,-1,-1,-1,-1,-1,-1,-1,-1,-1,-1,-1,-1,-1,-1,-1,-1],"loss_changes":[1.23116486E2,3.2954803E1,9.909882E0,1.1557475E1,1.19415245E1,3.1319122E0,7.7611084E0,8.54581E0,8.773304E0,7.9667892E0,1.0000879E1,1.1232449E0,2.6229782E0,8.384491E0,4.8714905E0,9.450706E0,6.052786E0,6.428012E0,6.3322797E0,6.813286E0,5.5011578E0,1.163339E1,5.2188234E0,0E0,0E0,3.0726624E0,3.0124187E0,9.795425E0,4.9969215E0,6.048126E0,9.589676E0,3.9553065E0,1.1211996E0,3.5969114E0,6.0961084E0,9.463596E0,1.110151E1,7.192612E0,1.1421122E1,6.3486195E0,5.0678654E0,6.5284214E0,6.167064E0,8.993998E0,9.470165E0,1.3817558E0,3.2115912E0,2.3245037E0,2.6708908E0,1.7129841E0,7.8527083E0,7.5781097E0,8.2180977E-1,5.766472E0,1.5341892E0,3.4332924E0,4.4787483E0,7.2482605E0,8.207222E0,0E0,0E0,0E0,0E0,0E0,0E0,0E0,0E0,0E0,0E0,0E0,0E0,0E0,0E0,0E0,0E0,0E0,0E0,0E0,0E0,0E0,0E0,0E0,0E0,0E0,0E0,0E0,0E0,0E0,0E0,0E0,0E0,0E0,0E0,0E0,0E0,0E0,0E0,0E0,0E0,0E0,0E0,0E0,0E0,0E0,0E0,0E0,0E0,0E0,0E0,0E0,0E0,0E0,0E0,0E0,0E0],"parents":[2147483647,0,0,1,1,2,2,3,3,4,4,5,5,6,6,7,7,8,8,9,9,10,10,11,11,12,12,13,13,14,14,15,15,16,16,17,17,18,18,19,19,20,20,21,21,22,22,25,25,26,26,27,27,28,28,29,29,30,30,31,31,32,32,33,33,34,34,35,35,36,36,37,37,38,38,39,39,40,40,41,41,42,42,43,43,44,44,45,45,46,46,47,47,48,48,49,49,50,50,51,51,52,52,53,53,54,54,55,55,56,56,57,57,58,58],"right_children":[2,4,6,8,10,12,14,16,18,20,22,24,26,28,30,32,34,36,38,40,42,44,46,-1,-1,48,50,52,54,56,58,60,62,64,66,68,70,72,74,76,78,80,82,84,86,88,90,92,94,96,98,100,102,104,106,108,110,112,114,-1,-1,-1,-1,-1,-1,-1,-1,-1,-1,-1,-1,-1,-1,-1,-1,-1,-1,-1,-1,-1,-1,-1,-1,-1,-1,-1,-1,-1,-1,-1,-1,-1,-1,-1,-1,-1,-1,-1,-1,-1,-1,-1,-1,-1,-1,-1,-1,-1,-1,-1,-1,-1,-1,-1,-1],"split_conditions":[1.7182718E-1,-1.005369E0,-4.0538394E-1,-1.593967E0,-6.576559E-1,-1.5929202E0,7.2943825E-1,-3.8973606E-1,-1.2011359E0,-1.322556E0,1.5814507E0,-3.7002778E-1,-3.7017268E-1,2.1724343E0,4.2231274E-1,-2.851265E-1,-8.608725E-1,8.8929427E-1,9.3630683E-1,-1.5259223E0,-3.7024516E-1,9.237704E-1,4.5719564E-1,-7.433595E-2,2.9822728E-2,-4.3066132E-1,-7.189621E-1,7.215493E-1,2.2848651E-1,-1.1102886E0,-5.7938147E-1,1.090686E0,-5.003895E-1,-9.2893404E-1,-7.9569355E-2,3.413732E-1,1.1962125E0,1.0844433E0,-6.329127E-1,-1.9133075E0,-2.0558846E0,-1.9969895E-1,-3.7024415E-1,-6.3406624E-2,-7.110699E-1,-1.0940552E0,1.5882018E0,3.1261888E-1,-1.5524561E0,1.3490233E0,-6.071861E-1,-3.6265317E-1,-1.07351884E-1,-1.4097872E0,-3.5663474E-1,-7.8047097E-1,-3.7004685E-1,3.5762289E0,1.0925909E0,2.3381395E-2,1.2216716E-1,-1.179449E-2,-1.3111013E-1,4.1040067E-2,-1.1380305E-1,-4.4350732E-2,-1.31169185E-2,-5.174738E-3,-1.22271E-1,6.0246665E-2,-3.2506287E-2,6.5953173E-3,4.3036323E-2,6.4798914E-2,-2.7914798E-2,1.0207949E-1,5.4163076E-3,-3.5441454E-2,1.0441231E-1,1.6693015E-2,6.306487E-2,-1.0003894E-1,1.8882098E-2,4.195358E-3,2.4365766E-2,-4.6528675E-2,1.4101991E-3,3.6981627E-2,1.2079129E-1,4.4773873E-2,-6.4210795E-2,-6.1067384E-2,7.5649895E-2,-4.4935634E-3,9.4352506E-2,9.089714E-2,-1.9998911E-3,-8.158702E-2,5.1379092E-2,4.51137E-2,2.8341373E-2,-2.0372592E-2,-1.4498973E-1,-2.7035613E-2,6.1964888E-2,2.8019646E-2,1.1861377E-1,-1.4256003E-2,1.02970116E-1,6.653234E-2,3.422649E-2,8.884743E-2,-1.0849156E-1,3.907229E-2,-2.3393579E-2],"split_indices":[2,2,4,2,1,0,8,4,5,9,8,6,6,7,0,6,7,1,0,9,6,0,3,0,0,4,9,8,8,5,1,3,7,9,3,1,1,8,3,9,1,9,6,8,2,5,0,0,8,2,9,4,0,9,4,3,6,6,9,0,0,0,0,0,0,0,0,0,0,0,0,0,0,0,0,0,0,0,0,0,0,0,0,0,0,0,0,0,0,0,0,0,0,0,0,0,0,0,0,0,0,0,0,0,0,0,0,0,0,0,0,0,0,0,0],"split_type":[0,0,0,0,0,0,0,0,0,0,0,0,0,0,0,0,0,0,0,0,0,0,0,0,0,0,0,0,0,0,0,0,0,0,0,0,0,0,0,0,0,0,0,0,0,0,0,0,0,0,0,0,0,0,0,0,0,0,0,0,0,0,0,0,0,0,0,0,0,0,0,0,0,0,0,0,0,0,0,0,0,0,0,0,0,0,0,0,0,0,0,0,0,0,0,0,0,0,0,0,0,0,0,0,0,0,0,0,0,0,0,0,0,0,0],"sum_hessian":[4.6919253E3,2.663229E3,2.0286964E3,1.02267084E3,1.640558E3,1.2848677E2,1.9002096E3,3.3471484E2,6.87956E2,4.4624918E2,1.1943088E3,2.4655402E0,1.26021225E2,1.3489377E3,5.512719E2,4.5230175E1,2.8948465E2,9.3687E1,5.9426904E2,6.875726E1,3.7749188E2,1.1656544E3,2.8654505E1,1.3692709E0,1.0962691E0,6.48938E1,6.1127422E1,1.2670071E3,8.1930664E1,2.2409149E2,3.2718042E2,4.0841885E1,4.388289E0,1.15008955E1,2.7798376E2,2.6868198E1,6.6818794E1,4.8453842E2,1.09730606E2,3.496421E1,3.3793056E1,1.2416016E2,2.5333174E2,9.084823E2,2.5717206E2,1.6220894E1,1.2433611E1,3.1999836E0,6.1693817E1,2.270953E1,3.8417892E1,1.2637126E3,3.2943864E0,6.0868164E1,2.1062496E1,4.1146988E1,1.8294449E2,4.8505535E1,2.7867487E2,3.7152863E1,3.6890235E0,1.234316E0,3.1539729E0,1.21576E0,1.0285135E1,9.496457E1,1.830192E2,1.3251001E1,1.3617197E1,1.622615E1,5.0592648E1,4.2332397E2,6.1214443E1,1.4449961E1,9.528065E1,8.158557E0,2.6805653E1,2.342058E0,3.1451E1,5.551365E1,6.864651E1,3.458656E0,2.498731E2,3.8075476E2,5.2772754E2,5.045071E1,2.0672134E2,3.637702E0,1.2583191E1,9.776427E0,2.657184E0,2.1275415E0,1.072442E0,2.7713218E0,5.8922497E1,2.0570242E1,2.1392884E0,4.1718607E0,3.4246033E1,3.9851505E2,8.6519763E2,1.0773675E0,2.2170188E0,7.835396E0,5.303277E1,2.8840113E0,1.8178486E1,2.4236827E0,3.872331E1,1.0271278E2,8.023171E1,4.7385227E1,1.1203101E0,2.56419E2,2.225588E1],"tree_param":{"num_deleted":"0","num_feature":"11","num_nodes":"115","size_leaf_vector":"0"}},{"base_weights":[2.0626354E-1,5.79463E-2,3.5635015E-1,-1.8801029E-1,9.889485E-2,5.979528E-1,3.4041637E-1,-5.462043E-1,-1.2635358E-1,1.5969662E-1,-3.3018917E-2,9.643162E-1,5.3083E-1,2.7246132E-1,3.9021248E-1,3.0770125E-2,-7.6150954E-1,-8.107463E-2,-7.3033065E-1,3.026832E-1,8.317659E-2,-1.13961905E-1,2.688189E-1,1.0636358E0,2.4688895E-1,-1.0593237E0,5.553444E-1,2.4205314E-1,4.45058E-1,4.1195396E-1,1.5659936E-1,-9.6242833E-1,8.24328E-1,-9.286187E-1,-3.6547574E-1,9.80335E-2,-2.6457807E-1,-1.3375674E0,-3.5881963E-1,2.3461826E-1,6.3301665E-1,9.434936E-2,-9.3979865E-1,-1.6750473E-1,2.9171467E-1,1.9122146E-1,8.081644E-1,1.1066725E0,2.0674902E-1,9.041836E-1,-7.9928625E-1,2.6354396E-1,6.58957E-1,3.1667954E-1,1.3609882E-1,8.009747E-1,3.650161E-1,6.9902873E-1,3.9480072E-1,2.1703555E-1,-6.2000793E-1,2.4922603E-1,-1.2786312E0,-4.3334395E-1,1.2099442E0,-1.0780079E0,-4.462331E-1,1.2323766E-1,-1.0214748E0,4.6426436E-1,-6.0395285E-2,-3.9053833E-1,1.7809536E-1,-1.0083308E0,9.326242E-2,1.9705176E-1,6.3840705E-1,1.0677E0,4.5822248E-1,1.8198058E-1,3.02662E-4,-1.2254063E0,2.640024E-1,-4.2500404E-1,-5.6604166E-2,-8.057677E-1,3.9614165E-1,2.4130163E-1,-7.138492E-1,9.288315E-1,-3.93372E-1,1.1539176E0,2.364699E-1,4.6767634E-1,-2.6150954E-1,-1.702624E-1,7.093045E-1,2.7618882E-1,6.0132706E-1,-3.583899E-2,2.4975279E-1,8.589779E-1,-2.5581998E-1,6.2927216E-1,2.1288712E-1,8.592493E-1,2.0980595E-1,3.1677708E-1,4.6139008E-1,4.6414682E-1,3.270618E-2,-1.0857674E0,4.16474E-1],"categories":[],"categories_nodes":[],"categories_segments":[],"categories_sizes":[],"default_left":[1,1,1,1,1,1,1,1,1,1,1,1,1,1,1,1,1,1,1,1,1,1,1,1,1,0,1,1,1,1,1,1,1,1,1,1,1,0,1,1,1,1,1,1,1,1,1,1,0,0,0,1,1,1,1,1,1,1,1,1,1,0,0,0,0,0,0,0,0,0,0,0,0,0,0,0,0,0,0,0,0,0,0,0,0,0,0,0,0,0,0,0,0,0,0,0,0,0,0,0,0,0,0,0,0,0,0,0,0,0,0,0,0],"id":12,"left_children":[1,3,5,7,9,11,13,15,17,19,21,23,25,27,29,31,33,35,37,39,41,43,45,47,49,-1,51,53,55,57,59,61,63,65,67,69,71,-1,73,75,77,79,81,83,85,87,89,91,-1,-1,-1,93,95,97,99,101,103,105,107,109,111,-1,-1,-1,-1,-1,-1,-1,-1,-1,-1,-1,-1,-1,-1,-1,-1,-1,-1,-1,-1,-1,-1,-1,-1,-1,-1,-1,-1,-1,-1,-1,-1,-1,-1,-1,-1,-1,-1,-1,-1,-1,-1,-1,-1,-1,-1,-1,-1,-1,-1,-1,-1],"loss_changes":[1.0353404E2,2.3595797E1,8.696838E0,7.317542E0,1.6106678E1,2.9732246E0,7.241028E0,6.087592E0,7.779761E0,1.5011616E1,1.5525135E1,1.2138062E0,5.3440895E0,4.7287903E0,6.288147E0,1.200654E1,2.0159035E0,8.826987E0,4.0016346E0,1.0614761E1,1.0336381E1,1.0926608E1,5.4705753E0,4.3123817E-1,3.3508368E0,0E0,3.478775E0,6.169304E0,3.6060772E0,5.355591E0,5.2084703E0,2.9162998E0,4.6209273E0,1.2757854E0,4.040263E0,7.9329815E0,7.459688E0,0E0,4.114354E0,5.9191647E0,5.6800613E0,7.3169007E0,3.6853323E0,1.2627681E1,7.052896E0,5.5574565E0,2.7714481E0,4.183426E-1,0E0,0E0,0E0,3.6937442E0,3.8148613E0,5.138466E0,6.388137E0,1.7084894E0,4.4311304E0,4.7723026E0,5.472595E0,4.5871735E0,4.3454137E0,0E0,0E0,0E0,0E0,0E0,0E0,0E0,0E0,0E0,0E0,0E0,0E0,0E0,0E0,0E0,0E0,0E0,0E0,0E0,0E0,0E0,0E0,0E0,0E0,0E0,0E0,0E0,0E0,0E0,0E0,0E0,0E0,0E0,0E0,0E0,0E0,0E0,0E0,0E0,0E0,0E0,0E0,0E0,0E0,0E0,0E0,0E0,0E0,0E0,0E0,0E0,0E0],"parents":[2147483647,0,0,1,1,2,2,3,3,4,4,5,5,6,6,7,7,8,8,9,9,10,10,11,11,12,12,13,13,14,14,15,15,16,16,17,17,18,18,19,19,20,20,21,21,22,22,23,23,24,24,26,26,27,27,28,28,29,29,30,30,31,31,32,32,33,33,34,34,35,35,36,36,38,38,39,39,40,40,41,41,42,42,43,43,44,44,45,45,46,46,47,47,51,51,52,52,53,53,54,54,55,55,56,56,57,57,58,58,59,59,60,60],"right_children":[2,4,6,8,10,12,14,16,18,20,22,24,26,28,30,32,34,36,38,40,42,44,46,48,50,-1,52,54,56,58,60,62,64,66,68,70,72,-1,74,76,78,80,82,84,86,88,90,92,-1,-1,-1,94,96,98,100,102,104,106,108,110,112,-1,-1,-1,-1,-1,-1,-1,-1,-1,-1,-1,-1,-1,-1,-1,-1,-1,-1,-1,-1,-1,-1,-1,-1,-1,-1,-1,-1,-1,-1,-1,-1,-1,-1,-1,-1,-1,-1,-1,-1,-1,-1,-1,-1,-1,-1,-1,-1,-1,-1,-1,-1],"split_conditions":[-1.2247183E-1,-1.593967E0,-4.0538394E-1,-7.0848405E-1,-2.3145163E-1,-1.2238739E0,7.604252E-1,-1.6123115E-1,1.463636E0,-3.7024003E-1,9.1858375E-1,-2.0844956E-1,-1.2125236E0,2.840259E-1,2.187813E0,-3.7001586E-1,3.5341388E-1,-3.7017012E-1,-1.7307258E-1,1.1909449E0,1.6576197E0,1.5505073E0,1.2422235E0,5.578524E-1,-1.0534766E0,-1.0593237E-1,-9.5091957E-1,1.9665681E-1,-1.1850483E0,-8.32216E-1,1.1851941E-1,-9.660981E-1,-9.583945E-1,-7.489246E-1,-7.6124424E-1,-3.620513E-1,8.067681E-1,-1.3375674E-1,9.566663E-3,1.3534591E0,7.567419E-2,-1.09734796E-1,6.9811445E-1,-2.172422E-1,-1.6944581E0,1.0923324E0,2.8478723E0,8.8422966E-1,2.0674903E-2,9.041836E-2,-7.992863E-2,-1.1323667E0,-4.2825395E-1,8.4941334E-1,4.336006E-1,1.3112524E0,-7.136882E-1,1.006706E0,-1.4710537E-1,-7.7491736E-1,1.055403E0,2.4922604E-2,-1.2786312E-1,-4.3334395E-2,1.2099443E-1,-1.078008E-1,-4.462331E-2,1.2323766E-2,-1.0214748E-1,4.6426438E-2,-6.0395286E-3,-3.9053835E-2,1.7809536E-2,-1.0083308E-1,9.326242E-3,1.9705176E-2,6.384071E-2,1.0677E-1,4.5822248E-2,1.8198058E-2,3.02662E-5,-1.2254063E-1,2.6400242E-2,-4.2500403E-2,-5.6604166E-3,-8.057677E-2,3.9614167E-2,2.4130164E-2,-7.138492E-2,9.2883155E-2,-3.93372E-2,1.1539175E-1,2.364699E-2,4.6767633E-2,-2.6150955E-2,-1.702624E-2,7.093045E-2,2.7618883E-2,6.013271E-2,-3.5838992E-3,2.497528E-2,8.5897796E-2,-2.5581999E-2,6.292722E-2,2.1288713E-2,8.592493E-2,2.0980595E-2,3.1677708E-2,4.613901E-2,4.6414685E-2,3.270618E-3,-1.0857674E-1,4.16474E-2],"split_indices":[2,2,4,7,4,9,2,1,4,6,5,6,9,4,6,6,9,6,5,8,1,1,8,8,8,0,8,0,3,7,4,0,1,7,7,4,3,0,8,5,3,1,0,8,8,8,4,7,0,0,0,8,4,7,8,8,5,1,9,0,0,0,0,0,0,0,0,0,0,0,0,0,0,0,0,0,0,0,0,0,0,0,0,0,0,0,0,0,0,0,0,0,0,0,0,0,0,0,0,0,0,0,0,0,0,0,0,0,0,0,0,0,0],"split_type":[0,0,0,0,0,0,0,0,0,0,0,0,0,0,0,0,0,0,0,0,0,0,0,0,0,0,0,0,0,0,0,0,0,0,0,0,0,0,0,0,0,0,0,0,0,0,0,0,0,0,0,0,0,0,0,0,0,0,0,0,0,0,0,0,0,0,0,0,0,0,0,0,0,0,0,0,0,0,0,0,0,0,0,0,0,0,0,0,0,0,0,0,0,0,0,0,0,0,0,0,0,0,0,0,0,0,0,0,0,0,0,0,0],"sum_hessian":[4.6509624E3,2.3399673E3,2.3109954E3,3.3345935E2,2.0065079E3,1.4072124E2,2.170274E3,4.781571E1,2.8564365E2,1.3733102E3,6.331977E2,1.9720133E1,1.21001114E2,9.2052966E2,1.2497444E3,1.322703E1,3.4588676E1,2.6677805E2,1.8865582E1,4.7770578E2,8.9560443E2,4.9979224E2,1.3340543E2,1.68982E1,2.8219333E0,1.1961945E0,1.1980492E2,7.8468567E2,1.3584398E2,1.1426398E3,1.0710453E2,5.780051E0,7.4469786E0,2.3378965E1,1.1209712E1,1.3524158E2,1.3153648E2,6.173924E0,1.2691658E1,3.975095E2,8.019629E1,8.868264E2,8.778006E0,4.4203745E2,5.775479E1,1.1781021E2,1.5595209E1,1.5812519E1,1.0856794E0,1.8164268E0,1.0055065E0,3.232178E1,8.748313E1,4.5924124E2,3.2544446E2,2.328725E1,1.12556725E2,6.2183876E1,1.0804559E3,1.0003988E2,7.0646496E0,1.2400672E0,4.5399837E0,1.718474E0,5.728504E0,1.6908009E1,6.470956E0,6.889348E0,4.3203645E0,4.0255283E1,9.49863E1,1.02491005E2,2.9045471E1,4.703571E0,7.988087E0,3.6503635E2,3.2473152E1,2.1534729E1,5.8661556E1,4.585872E2,4.2823926E2,7.080238E0,1.6977677E0,1.3221532E2,3.0982214E2,4.43446E0,5.332033E1,1.1232816E2,5.482053E0,1.4378207E1,1.2170018E0,1.46889925E1,1.1235269E0,2.3352129E1,8.969654E0,4.871311E0,8.2611824E1,4.037751E2,5.5466152E1,1.297862E2,1.9565826E2,2.2253056E1,1.034195E0,3.9977413E1,7.257931E1,4.6273075E1,1.5910801E1,5.0016415E2,5.802918E2,4.209263E1,5.7947254E1,4.8414965E0,2.2231534E0],"tree_param":{"num_deleted":"0","num_feature":"11","num_nodes":"113","size_leaf_vector":"0"}},{"base_weights":[1.8741249E-1,6.86908E-2,3.4692267E-1,-5.1145058E-2,1.4364778E-1,5.9663606E-1,3.302956E-1,-2.392393E-1,-7.6735932E-3,3.2047972E-1,1.1028809E-1,-2.5481063E-1,6.226952E-1,2.817297E-1,4.0800142E-1,-3.7523222E-1,-7.334128E-3,4.866144E-2,-1.9814168E-1,3.9364058E-1,4.678531E-2,9.912705E-2,7.444572E-1,4.479732E-1,-7.453739E-1,1.0002337E0,5.2785736E-1,3.1922796E-1,1.3584542E-1,3.016975E-1,4.901003E-1,6.491169E-2,-4.5209742E-1,1.6094582E0,-8.1243135E-2,3.0141301E-2,6.9032407E-1,-3.3854342E-1,1.710503E-1,2.583775E-1,5.8151823E-1,-1.9351293E-1,5.388564E-1,3.2994303E-1,6.853316E-2,2.4589998E-1,9.7748446E-1,1.140834E0,1.5064791E-1,9.65879E-1,4.4097292E-1,3.779774E-1,1.7269868E-1,3.6883944E-1,-1.8405913E-1,3.2239866E-1,-8.2907903E-1,8.438544E-1,4.4484627E-1,-5.738429E-1,4.301977E-1,-6.985619E-1,-2.879823E-1,-1.7171971E-1,1.1697649E0,7.7313654E-2,-2.4938084E-1,9.002287E-1,-1.04558915E-1,-4.2824847E-1,2.8282005E-1,8.640138E-2,1.443563E0,3.3448973E-1,-6.7523617E-1,4.8528594E-1,1.1292812E0,-3.0133702E-2,-1.0058415E0,7.8238136E-1,-3.3980963E-1,3.9915156E-1,-2.8201622E-1,6.1066586E-1,4.9368426E-2,-1.5713708E-1,8.258536E-1,1.1408757E0,2.8746548E-1,2.0863982E-1,1.1850015E0,-8.2942736E-1,9.0610695E-1,-2.3957498E-1,1.0789331E0,-2.3887846E-1,4.926267E-1,4.0121016E-1,-2.8075252E-2,4.4669464E-1,5.730773E-2,5.234661E-2,5.276034E-1,-1.4455471E0,-9.0849444E-2,2.5233686E-1,6.9066423E-1,-1.2180597E0,3.4261665E-1,9.175098E-1,-6.362205E-3,5.7823634E-1,3.2530618E-1],"categories":[],"categories_nodes":[],"categories_segments":[],"categories_sizes":[],"default_left":[1,1,1,1,1,1,1,1,1,1,1,1,1,1,1,1,1,1,1,1,1,1,1,0,0,1,1,1,1,1,1,1,1,0,1,1,1,1,1,1,1,1,1,1,1,1,1,1,1,1,1,1,1,1,1,1,1,1,1,0,0,0,0,0,0,0,0,0,0,0,0,0,0,0,0,0,0,0,0,0,0,0,0,0,0,0,0,0,0,0,0,0,0,0,0,0,0,